
\data\
ngram 1=6646

\1-grams:
-3.917295	"
-3.917295	"Godność"
-4.093387	"Idioty"
-4.093387	"Kobrę"
-4.093387	"Tanga".
-4.093387	"Tango"-
-4.093387	"drobinkę",
-4.093387	"istnieć"?
-4.093387	"jeleń",
-4.093387	"kozła"
-4.093387	"materialność"
-4.093387	"materialnych",
-4.093387	"momenty"
-4.093387	"namagnesowana"
-4.093387	"romanse"
-4.093387	"skakać"
-4.093387	"zalaniem"
-3.917295	%
-3.917295	+
-2.385816	,
-2.704221	,,
-3.218325	,,,
-3.549319	,,,,
-3.616266	,,,,,
-3.917295	,,,,,,
-4.093387	,,,,,,,
-2.862938	-
-4.093387	1-2-3
-4.093387	1-2-3.
-3.616266	1.
-3.917295	10
-4.093387	100
-3.917295	103.
-3.917295	120
-4.093387	145
-3.917295	15.
-4.093387	16
-3.917295	16.
-4.093387	17.
-4.093387	18.
-4.093387	19
-4.093387	19.
-4.093387	1918)-
-4.093387	1930)-
-4.093387	1986
-4.093387	1987
-4.093387	1998
-4.093387	1999
-4.093387	2,3
-3.315235	2.
-4.093387	20.
-4.093387	216
-4.093387	23
-4.093387	24-bitowy
-4.093387	3),
-3.440174	3.
-4.093387	30
-4.093387	30-letnia
-3.917295	300
-4.093387	382
-3.917295	4.
-4.093387	5
-3.616266	5.
-4.093387	50
-4.093387	50-metre
-4.093387	50-metrowy
-4.093387	50.
-3.792357	6.
-3.917295	7.
-4.093387	70
-4.093387	777
-4.093387	8
-3.792357	8.
-4.093387	80
-3.917295	896
-4.093387	9.
-4.093387	92
-3.917295	97
-1.250777	</s>
-99	<s>
-2.792357	A
-3.616266	A.
-3.394417	A:
-3.917295	Absalom.
-4.093387	Absolutnie
-3.695447	Aby
-4.093387	Adu
-4.093387	Afryce
-4.093387	Agnieszko,
-3.792357	Aimee
-4.093387	Akcesoria:
-4.093387	Aktorska
-4.093387	Aktorstwo
-3.917295	Akwinu-
-3.917295	Albert
-4.093387	Albo
-3.139144	Ale
-3.917295	Aleksiej
-3.917295	Aleksy,
-4.093387	Alkohol
-4.093387	Amerykance.
-4.093387	Andrzej:
-3.917295	Angleberta,
-3.917295	Anglii),
-4.093387	Anna
-4.093387	Annette
-4.093387	Annette,
-3.917295	Annie
-4.093387	Anti
-4.093387	Aparat
-3.917295	Aristajosa
-4.093387	Arystoteles.
-4.093387	Arystotelesie
-4.093387	Autor
-4.093387	B-17
-4.093387	B-1B
-4.093387	B-24
-4.093387	B-29.
-4.093387	B-2?
-4.093387	B-52
-4.093387	BBC
-4.093387	Badania
-3.695447	Bardzo
-3.917295	Bawary
-3.917295	Bazyliszka
-3.917295	Beatrycze,
-3.917295	Beatrycze.
-3.917295	Berenta
-3.917295	Bez
-3.917295	Bezradność
-3.917295	Biblioteką
-3.917295	Blask
-4.093387	Blush
-3.394417	Bo
-3.353024	Boga
-3.917295	Boga,
-3.695447	Boga.
-3.917295	Bogarodzicy.
-3.695447	Bogiem
-3.917295	Bogu
-3.917295	Bogu.
-4.093387	Bohra
-3.917295	Bolesława
-4.093387	Bolkiem
-3.917295	Boskich
-3.917295	Boże
-3.917295	Brał
-3.917295	Bruno,
-3.917295	Bruyere
-3.917295	Buckle'a(
-4.093387	Budzi
-3.917295	Bułhakowa.
-3.917295	Bywa
-4.093387	Bywa,
-3.695447	Być
-4.093387	Byłam
-3.315235	Bóg
-3.917295	Bóg,
-3.792357	Bóg-
-4.093387	BĄDŹ
-4.093387	Będziemy
-4.093387	CIA
-2.862938	CKM:
-4.093387	CKOSMO:
-3.394417	COSMO:
-4.093387	COSMOWSKAZÓWKA:
-3.917295	Camus,
-4.093387	Captif.
-4.093387	Całe
-3.917295	Całym
-4.093387	Centrum
-4.093387	Centrum?
-3.917295	Cesarzowi
-4.093387	Cezary
-3.917295	Chamfort,
-4.093387	Charakterystyczna
-3.917295	Chardina.
-4.093387	Chatka
-4.093387	Chciałabyś
-4.093387	Chciałbym,
-4.093387	Check
-4.093387	Check.
-4.093387	Chelsea
-3.917295	Chełmna,
-4.093387	Chichen
-4.093387	Chin(
-4.093387	Chińczycy
-4.093387	Chociaż
-3.917295	Chojnickiej,
-3.917295	Chrobrego,
-4.093387	Chrochodylek,
-3.917295	Chrystus
-3.695447	Chrystusa
-3.695447	Chrystusa,
-3.695447	Chrystusa.
-4.093387	Chyba
-4.093387	Chyba,
-3.792357	Ci
-3.917295	Ci,
-3.917295	Cichy.
-4.093387	Ciebie
-3.917295	Ciebie,
-3.917295	Ciekawa
-4.093387	Ciekawe
-4.093387	Ciekawsze
-3.792357	Cię
-4.093387	Claire
-3.616266	Co
-4.093387	Codziennie
-3.917295	Coelho
-4.093387	Cokolwiek
-4.093387	Conieco?
-4.093387	Cosmodziewczyny?
-3.792357	Coś,
-4.093387	Craig
-4.093387	Czai
-4.093387	Czarek
-3.695447	Czas
-3.695447	Czasem
-4.093387	Czasem,
-3.917295	Czechy
-4.093387	Czeczenii
-3.917295	Czego
-4.093387	Czuły
-3.093387	Czy
-3.917295	Czym
-3.917295	Czyn
-3.917295	Czytelnik
-4.093387	Cząstki
-4.093387	Człowiek
-3.792357	Cóż
-4.093387	Cóż,
-4.093387	D)-
-4.093387	D:.
-3.917295	DIABEŁ.
-4.093387	DVD
-3.917295	Daj
-3.917295	Dantego
-3.917295	Dawid
-3.917295	Dawidowi
-3.917295	Dał
-4.093387	Delikatnie
-4.093387	Deluxe"
-4.093387	Diana(
-4.093387	Director
-3.917295	Dla
-3.792357	Dlaczego
-3.616266	Dlatego
-3.695447	Do
-4.093387	Dobra,
-4.093387	Dobre
-3.695447	Dobrze
-4.093387	Dobrze,
-4.093387	Dodaj/
-4.093387	Dodatkową
-3.917295	Dom
-3.917295	Domatowa
-4.093387	Domogarow?
-4.093387	Domogarowa,
-3.917295	Domowi
-3.792357	Dopiero
-4.093387	Dostojewskiego
-4.093387	Dotrzymaj
-4.093387	Dotyk
-4.093387	Dołącz
-4.093387	Dpi(
-4.093387	Dramat
-4.093387	Dreamweavera-
-4.093387	DriveMapper
-4.093387	Drzemie
-3.917295	Drżące
-3.917295	Ducha
-3.917295	Duchu
-3.917295	Duma,
-3.917295	Dunin
-4.093387	Dużo
-4.093387	Dużym
-4.093387	Dużą
-3.792357	Dwa
-4.093387	Dwa.
-3.917295	Dziadek
-3.917295	Dziady,
-4.093387	Dzisiaj,
-3.917295	Dzięki
-4.093387	Dziękowali.
-4.093387	Dziękuję,
-3.917295	Dziś
-4.093387	Długo
-4.093387	E:
-4.093387	EPP(
-3.917295	ER:
-3.917295	Edenu.
-3.917295	Edessy
-4.093387	Ejże,
-4.093387	Ekspresji(
-4.093387	Elite
-3.917295	Elle
-4.093387	Enhanced
-4.093387	Estée
-3.917295	Eucharystii,
-3.917295	Eucharystię.
-4.093387	Europy
-3.917295	Europy?
-3.917295	Eurydyce.
-3.917295	Eurydyki
-3.917295	Eurydyki.
-3.917295	Eurydykę
-3.917295	Ewangelię.
-4.093387	Facet:-
-3.917295	Faulkner
-4.093387	Fausta
-4.093387	Feynmana
-4.093387	Filharmonii
-4.093387	Fiodora
-4.093387	Firma
-3.917295	Formosus
-3.917295	Formosusa
-3.917295	Fragonarda,
-4.093387	Francisco
-3.917295	Franco
-4.093387	Francuzem,
-3.917295	Franza
-3.917295	Freuda
-4.093387	FrontPage
-4.093387	Fucking"
-3.917295	G.:
-4.093387	GQ.
-3.248289	Gdy
-3.917295	Gdzież
-4.093387	Gel
-3.917295	Georga
-3.917295	Gero
-4.093387	Glow.
-3.695447	Go
-4.093387	Goethe
-3.917295	Goldinga.
-3.792357	Gomułki.
-4.093387	Gospodynią
-3.917295	Grekom
-3.917295	Grzegorz
-4.093387	Gwiazd.
-4.093387	Górną
-4.093387	Gęstość
-3.695447	Głogowa
-3.917295	Głogowa.
-4.093387	Głębia
-4.093387	Hajduna
-3.917295	Hamburg,
-4.093387	Hawajach.
-4.093387	He,
-4.093387	Heisenberga
-3.695447	Henryka
-3.917295	Herman-
-3.917295	Hermes,
-3.917295	Herrenchiemsee
-4.093387	Hillary
-3.917295	Historia
-3.917295	Hitlera
-3.917295	Hitlera-
-3.917295	Hohenlohe,
-3.917295	Homera
-3.163968	I
-4.093387	I'm
-4.093387	II
-3.917295	Ich
-3.917295	Idą
-4.093387	Ile
-4.093387	Illustrated
-4.093387	Ing
-4.093387	Inna
-3.917295	Inni
-4.093387	Internetowe
-4.093387	Is
-4.093387	Istnieje,
-3.917295	Istnienie
-4.093387	Istotne
-3.917295	Italią
-4.093387	Itza
-3.917295	Iwan
-3.917295	Iwo
-4.093387	Izraela,
-4.093387	JAK
-3.695447	Ja
-3.917295	Jadło
-3.218325	Jak
-4.093387	Jaka
-4.093387	Jakby
-3.616266	Jaki
-3.917295	Jakich
-3.549319	Jakie
-4.093387	Jakieś
-3.917295	Jaką
-4.093387	Janusza
-4.093387	JavaScript.
-3.917295	Jazda
-4.093387	Jean
-4.093387	Jedna
-3.792357	Jednak
-4.093387	Jednym
-4.093387	Jedynaczki
-3.190297	Jego
-4.093387	Jej
-3.917295	Jerozolimie-
-3.917295	Jerzego,
-3.440174	Jest
-4.093387	Jestem
-4.093387	Jesteś
-4.093387	Jesteście
-3.917295	Jeszcze
-3.917295	Jezioro,
-3.549319	Jezu,
-3.695447	Jezus
-3.549319	Jezusa
-3.792357	Jeśli
-3.695447	Jeśli,
-4.093387	Jeżeli
-4.093387	Johnston.
-3.917295	Jonatana
-4.093387	Jonathan
-4.093387	Joni
-4.093387	Jukatan
-3.917295	Już
-3.917295	Józefa
-3.917295	Józefa.
-3.917295	Józefie,
-3.917295	K.
-3.917295	K.,
-3.917295	K:
-3.917295	KAZAĆ
-3.917295	Kafki
-3.917295	Kafkowski
-3.917295	Kamienny
-3.917295	Kanon
-4.093387	Karaibów.
-4.093387	Kariera
-4.093387	Kariera:
-4.093387	Kartezjuszu.
-3.917295	Kaszubi,
-4.093387	Katarzyna
-3.917295	Kałem
-4.093387	Każdej
-3.917295	Każdy
-3.917295	Każdy,
-3.491327	Kiedy
-3.917295	Kielich
-4.093387	Kierkegaarda,
-3.917295	Kierownictwo
-4.093387	Kieszonkowy
-3.917295	Kijowie-
-4.093387	Kim
-4.093387	Kitzbuhl
-3.917295	Klasnął
-3.792357	Kobiety
-3.917295	Kochając
-4.093387	Kocham
-4.093387	Kogo
-4.093387	Komedia
-3.917295	Komornicy
-3.917295	Komtur
-3.917295	Komunię
-4.093387	Koniec-
-4.093387	Kopia
-3.917295	Kordiana
-4.093387	Kosiński.
-4.093387	Kosmosu,
-3.917295	Kreon
-3.917295	Kreona
-3.917295	Krescencjusz
-3.917295	Krescencjusza.
-3.917295	Krok
-3.917295	Krzywoustego
-3.917295	Krzywulą
-3.695447	Krzyżakom
-3.695447	Książki
-3.917295	Książę
-3.917295	Księciem
-4.093387	Księciem...
-4.093387	Księżyca
-4.093387	Księżyca.
-3.695447	Kto
-3.792357	Ktoś
-3.917295	Który
-4.093387	Kubusia
-4.093387	Kubuś
-3.917295	Kujawy
-4.093387	Kwaśnica
-4.093387	Kwestię,
-3.917295	Kąśliwe
-4.093387	L'Oreal.
-4.093387	L.
-3.549319	La
-4.093387	Ladena,
-4.093387	Lancer.
-4.093387	Larry
-4.093387	Lata
-4.093387	Lauder
-3.218325	Lecz
-4.093387	Leibnizu
-3.917295	Lekcja
-3.917295	Lektura
-4.093387	Lepiej
-3.695447	Li
-3.917295	Lirę
-3.917295	Litaka.
-3.917295	Liturgicznego
-3.917295	Liturgiii
-3.917295	Liz
-3.917295	Liście
-4.093387	Loki
-4.093387	Lolkiem"
-4.093387	Loren
-4.093387	Los
-3.792357	Lotus
-4.093387	Love
-4.093387	Lovers
-3.917295	Ludwik
-3.917295	Ludwikowi,
-3.917295	Ludzkość
-3.917295	Lutyki,
-4.093387	Lwa
-3.695447	M.
-3.695447	M.:
-3.792357	M:
-4.093387	MAGNES.
-4.093387	MALEZJA:
-4.093387	Ma
-3.917295	Machiavelli,
-4.093387	Machiavelli:
-4.093387	Magda.
-4.093387	Majów-
-4.093387	Makijaż
-4.093387	Makijażystka
-3.792357	Mam
-4.093387	Mama
-4.093387	Mamy
-3.917295	Marcel
-3.917295	Maria
-4.093387	Marie
-3.917295	Mariesjew
-3.792357	Marii
-3.917295	Martwe
-3.695447	Maryjo,
-4.093387	Mascara
-3.917295	Masz
-3.695447	Matko
-3.917295	Maurice
-4.093387	Mawsu'at
-4.093387	Małe
-4.093387	Małgorzata
-4.093387	Mało
-3.917295	Mały
-4.093387	Małżeństwo
-4.093387	McIntosh
-4.093387	Mechaniczna
-4.093387	Medycyna
-4.093387	Merkury
-3.917295	Messyny
-3.917295	Meursaulta
-4.093387	Mgnienie
-4.093387	Microsoftu.
-3.917295	Miecz
-4.093387	Mikołaja
-4.093387	Milne'a"
-4.093387	Misiuro
-4.093387	Misiury,
-3.917295	Między
-4.093387	Miłość
-4.093387	Model.
-3.353024	Modlitwa
-3.792357	Mogę
-4.093387	Moi
-3.917295	Moje
-4.093387	Monako
-4.093387	Monako,
-3.394417	Może
-4.093387	Możliwości
-4.093387	Mullins
-3.917295	Mullins?
-3.695447	Musi
-3.917295	Musimy
-4.093387	Muskaj
-3.917295	Mussoliniego,
-3.917295	Muszę,
-3.616266	My
-4.093387	Myszkina-
-4.093387	Myślisz,
-3.917295	Myślę,
-3.792357	Mógłbym
-3.792357	Mój
-4.093387	Mówi,
-4.093387	Mówienia
-3.917295	Mówiąc
-3.917295	Mówił
-4.093387	Młody
-4.093387	Młodym
-4.093387	Młodzież
-3.917295	N.
-4.093387	NA
-4.093387	NBC
-3.093387	Na
-4.093387	Nad
-4.093387	Nagroda
-4.093387	Najczęściej
-4.093387	Najlepsza
-4.093387	Najprościej
-4.093387	Największą
-3.695447	Najśw.
-4.093387	Napady
-4.093387	Narkotyki?
-4.093387	Narzędzia
-4.093387	Nas
-4.093387	Natomiast
-4.093387	Naturalne
-3.917295	Nauczyciel,
-4.093387	Nauczysz
-3.616266	Nawet
-3.917295	Nazwij
-3.917295	Neapol
-3.917295	Neuschwanstein
-4.093387	Niby
-3.792357	Nic
-4.093387	Niccolo
-4.093387	Nicość
-2.760948	Nie
-3.917295	Nie!
-3.695447	Nie,
-4.093387	Nie.
-4.093387	Niebezpiecznych
-3.917295	Niebieskiemu
-3.917295	Nieboską.
-3.917295	Niech
-3.917295	Niechaj
-4.093387	Nieee.
-3.917295	Niego
-3.917295	Niektóre
-3.917295	Nieliczni
-4.093387	Niemal
-3.917295	Niemce
-3.917295	Niemce,
-3.917295	Niemców
-3.917295	Niepogrzebane
-4.093387	Niestety,
-4.093387	Niestety.
-4.093387	Nieszczery
-3.917295	Niezwyciężony
-3.792357	Nigdy
-4.093387	Nikołajewicza
-4.093387	Nikt
-3.549319	Nim
-4.093387	Nimfomania
-3.917295	No
-3.695447	No,
-4.093387	Nobla
-3.917295	Notowałem
-3.440174	O
-4.093387	O,
-4.093387	OK,
-4.093387	OK.
-3.917295	Obcowanie
-3.917295	Obcy
-3.549319	Obietnice
-3.917295	Obodryci
-4.093387	Obudziła
-3.917295	Och!
-4.093387	Ochroniarze
-4.093387	Oczy:
-3.917295	Oczywiście,
-4.093387	Oczywiście.
-3.491327	Od
-4.093387	Oddaję
-3.917295	Odetchnęły
-3.917295	Odkrył
-3.917295	Odkładam
-4.093387	Odmaterializował
-4.093387	Odpadłaś...
-4.093387	Odpoczynek
-3.917295	Odpowiedź
-4.093387	Oferty
-3.917295	Ogień
-4.093387	Ognista
-3.792357	Ojciec
-3.695447	Ojcu
-3.917295	Ojcze
-3.917295	Ojcze,
-4.093387	Okoliczności
-3.792357	On
-4.093387	On-the-Loose
-3.695447	Ona
-4.093387	Opcja
-3.917295	Opiekunie
-3.917295	Opizzoni,
-3.792357	Oprócz
-3.917295	Opuszczając
-4.093387	Orb.
-3.917295	Orderu
-3.353024	Orfeusz
-3.917295	Orfeusz,
-3.917295	Orfeusza
-3.917295	Orfeuszu
-4.093387	Osama
-4.093387	Oscar!)
-4.093387	Osjan
-4.093387	Osobliwy
-4.093387	Ostatnie
-3.917295	Ostatnio
-3.917295	Otchłanie
-3.616266	Oto
-3.917295	Ottona,
-3.917295	Otulił
-4.093387	Owiń
-4.093387	Owo
-3.792357	P.
-3.917295	P.:
-3.695447	P:
-4.093387	PC.
-4.093387	PQBoot
-4.093387	PRZYGOTUJ
-3.917295	Pana
-3.917295	Pana,
-4.093387	Panelu
-3.917295	Pani
-3.616266	Panie
-3.917295	Panie!
-3.917295	Panny
-3.917295	Paolo
-3.917295	Papież
-4.093387	Paradoks
-4.093387	Paradzie
-4.093387	Parallel
-4.093387	PartitionMagic
-4.093387	Paul
-4.093387	Pazura.
-4.093387	Państwa
-4.093387	Pewnie.
-4.093387	Phillippe
-4.093387	Pierwsza
-3.917295	Pietrowicz
-3.353024	Pieśń:
-3.917295	Ping
-4.093387	Pirat
-3.917295	Pisali
-3.917295	Pisać
-3.917295	Piszę,
-4.093387	Pięć
-4.093387	Platonie
-4.093387	Plotynie
-3.917295	Plotzke,
-3.139144	Po
-4.093387	Poczujesz
-4.093387	Pod
-4.093387	Podczas
-3.917295	Podejrzałem
-3.917295	Podobnie-
-3.549319	Podobno
-4.093387	Podrywał
-4.093387	Podążył
-3.917295	Pogrążony
-3.917295	Pogładził
-3.917295	Pokorny.
-4.093387	Pokusy
-3.917295	Polchowa
-4.093387	Polegają
-4.093387	Policzki:
-4.093387	Pollard(
-3.917295	Polsce
-3.917295	Polski
-4.093387	Polskiej
-4.093387	Ponad
-4.093387	Ponadto
-3.917295	Ponieważ
-4.093387	Ponętna
-4.093387	Port)-
-3.917295	Portretowany
-3.917295	Postanowił
-4.093387	Postaramy
-4.093387	Postawiłabym
-4.093387	Poszukiwacz
-3.917295	Posłuszny
-3.917295	Potem
-4.093387	Powder
-3.917295	Powiedz
-4.093387	Powieść
-3.917295	Powinien
-4.093387	Powinnaś
-3.917295	Powrócił
-3.917295	Powstając
-3.917295	Powstrzymało
-4.093387	Powtarzanie
-4.093387	Poznając
-4.093387	Poznasz
-4.093387	Pozostałe
-4.093387	Pozwoli
-4.093387	Pozwolił
-3.917295	Pracowicie
-3.695447	Prawie
-4.093387	Prezydent
-4.093387	Prezydentem,
-4.093387	Princess
-3.917295	Procesu,
-3.917295	Procesy
-3.917295	Program
-3.917295	Prostak
-3.917295	Proszę
-3.917295	Prousta
-3.917295	Prusy,
-4.093387	Przed
-4.093387	Przedstawimy
-4.093387	Przegranych.
-3.917295	Przejrzał
-3.917295	Przeklęty
-4.093387	Przekonaj
-4.093387	Przemawia
-3.917295	Przesunął
-4.093387	Przy
-3.917295	Przyborowski(
-3.917295	Przyborowski?)
-3.917295	Przychodzimy
-3.917295	Przychodzimy,
-4.093387	Przycisk2_1.
-3.917295	Przygotowanie:
-4.093387	Przygotowałam
-4.093387	Przygotowując
-4.093387	Przygotuj
-3.549319	Przyjrzyj
-3.917295	Przyszedł
-4.093387	Przytyłam
-4.093387	Przywitaj
-3.917295	Psalm
-4.093387	Pstryk
-4.093387	Puchatek"
-4.093387	Puchatka
-4.093387	Puchatka".
-3.917295	Puckiej
-3.917295	Punktem
-4.093387	Puzon
-4.093387	Pytania
-4.093387	Pójdziemy!
-4.093387	Półwysep
-4.093387	Później
-3.917295	Płacz
-3.917295	Płaczącym
-3.917295	Quentin
-3.549319	R.
-4.093387	R.:
-4.093387	Raczej
-3.917295	Radio
-3.917295	Rainer
-4.093387	Rajdowi
-4.093387	Reasumując:
-4.093387	Redakcyjny
-4.093387	Reese
-3.917295	Rezultat
-3.695447	Rilke
-3.917295	Rochefoucauld
-4.093387	Rock"
-4.093387	Rodzice
-3.695447	Rodziny,
-3.917295	Roku
-4.093387	Rouge
-3.917295	Rozbiegli
-4.093387	Rozmaitości)
-3.917295	Rozmawiały
-3.917295	Rozpacz,
-3.917295	Rozpaczliwie
-3.917295	Rozprawy
-3.917295	Ruskina
-4.093387	Rybczyńskiego(
-4.093387	Rzecz
-4.093387	Rzecz,
-3.917295	Rzeź
-4.093387	Rzut
-3.917295	Rzymska
-3.917295	Rzymu
-3.695447	Rzymu.
-4.093387	Rzęsy
-3.917295	Równie
-4.093387	SA.
-4.093387	SIĘ.
-3.917295	SJL:
-4.093387	STRZELBY:
-4.093387	Sade
-3.695447	Sakrament
-3.917295	Salazar-
-3.549319	Sam
-4.093387	Sama
-3.917295	Samemu
-3.917295	Sami
-3.917295	Samo
-4.093387	Samotna?
-4.093387	San
-4.093387	Sartre.
-3.917295	Sasami,
-3.917295	Saula
-4.093387	Sceniczna
-3.917295	Schachingera,
-4.093387	Schodzę
-4.093387	Score
-4.093387	Sebastian
-4.093387	Sebastiana,
-4.093387	Sebastiana.
-4.093387	Seks
-3.695447	Sen
-3.917295	Sens
-4.093387	Serce
-3.917295	Shi-king
-4.093387	Shimmering
-4.093387	Shoping
-3.917295	Shu-king
-4.093387	Sieci.
-4.093387	Sieczkowska.
-4.093387	Siera"
-4.093387	Simów!
-4.093387	Skaner
-3.917295	Skarbem.
-4.093387	Skarpety.
-3.917295	Skinął
-3.695447	Skoro
-4.093387	Skończy
-4.093387	Skład
-4.093387	SmartSuite
-3.917295	Sofoklesa
-4.093387	Sophią
-4.093387	Sopot)
-3.917295	Spojrzał
-4.093387	Sport
-4.093387	Sprytna
-4.093387	Spróbujmy
-3.917295	Spustoszył
-4.093387	Stage
-3.917295	Stalina.
-4.093387	Stalowej
-4.093387	Stara
-3.917295	Starej
-4.093387	Start:
-4.093387	Startowałaś
-3.917295	Starym
-4.093387	Statek"
-3.917295	Stały
-4.093387	Stań
-4.093387	Steczkowska,
-4.093387	Steczkowska.
-3.917295	Stendhala,
-4.093387	Sterowania"
-4.093387	Stosowanie
-4.093387	Stratofortress,
-3.917295	Stu
-4.093387	Suwałk.
-3.695447	Swiętopełk
-4.093387	Swój
-3.695447	Sy,
-4.093387	Szczery
-3.917295	Sześciuset
-4.093387	Szkole
-3.917295	Szkół,
-3.917295	Szpitala
-4.093387	Szymonem
-3.917295	Są
-3.917295	Sądzić
-4.093387	Słabszym
-3.917295	Sława
-3.917295	Słowian
-4.093387	Słońca,
-3.917295	Służący
-3.917295	Słyszałem,
-4.093387	TAJLANDZKA:
-4.093387	TY
-3.695447	Ta
-4.093387	Tadlock.
-3.917295	Tajny
-3.491327	Tak
-4.093387	Tak,
-4.093387	Tak.
-3.917295	Taka
-3.616266	Taki
-4.093387	Takich
-3.549319	Takie
-4.093387	Taką,
-3.549319	Tam
-3.917295	Tammona
-3.917295	Tamten
-4.093387	Tarcia
-3.792357	Te
-4.093387	Teatr
-4.093387	Teatru
-3.792357	Tego
-3.917295	Tej
-4.093387	Telekomunikacji
-3.917295	Telewizji
-3.549319	Ten
-4.093387	Teologiem-
-4.093387	Teraz
-3.917295	Testamencie
-3.917295	Teutońskiego
-4.093387	Też.
-3.917295	This
-2.903055	To
-3.695447	Tobą
-3.695447	Tomasz
-3.917295	Tour,
-3.917295	Towarzyszyły
-3.917295	Tradycja
-4.093387	Tradycyjne
-4.093387	Transclucide
-3.616266	Trudno
-3.917295	Trup
-3.917295	Trwoni
-3.792357	Trzeba
-4.093387	Trzymaj
-3.917295	Tu,
-4.093387	Tulum
-3.917295	Turyngii
-3.917295	Twego
-3.917295	Twoich
-3.917295	Twoim
-3.917295	Twoja
-3.695447	Twoje
-4.093387	Twojego
-3.917295	Twoją
-4.093387	Twój
-3.549319	Ty
-3.549319	Tylko
-4.093387	Tyrolu,
-3.917295	Tę
-4.093387	UCHO:
-4.093387	USA,
-3.917295	Udziel
-3.917295	Udzielają
-4.093387	Ulubiona
-4.093387	Ulubione
-3.917295	Umarli
-4.093387	Umiem
-4.093387	Unikaj
-4.093387	Uprawia
-3.917295	Uproś
-4.093387	Urana
-4.093387	Uruchamiamy
-4.093387	Usuń
-4.093387	Uważaliśmy,
-3.917295	Uważam,
-4.093387	Uwolnił
-4.093387	Uśmiechnij
-3.917295	Uśmiechnięty.
-3.917295	Używając
-4.093387	Używam
-3.917295	V-
-2.771168	W
-4.093387	W"
-3.792357	W.:
-3.440174	W:
-4.093387	WF)
-4.093387	WWW
-4.093387	WWW,
-3.917295	Wacława
-4.093387	Wajdzie.
-3.917295	Walecznie
-3.792357	Wami
-3.917295	Waragi-
-4.093387	Warianowa(
-4.093387	Warner
-4.093387	Warszawskiej.
-3.917295	Warto
-3.917295	Watteau
-4.093387	Wayne
-4.093387	Ważne
-3.917295	Wbrew
-3.917295	Wcale
-4.093387	Wcześniej
-4.093387	Wdzięku
-3.695447	Według
-3.792357	Wenus
-3.917295	Wergilego.
-3.917295	Wes:
-3.917295	Westchnienia
-4.093387	Wiadomo
-3.917295	Wiatr
-3.917295	Widok
-3.917295	Wiek
-4.093387	Wielka-
-4.093387	Wiem,
-3.917295	Wiemy
-4.093387	Wietnamie.
-3.917295	Wiku
-3.917295	William
-3.917295	Williama
-4.093387	WireFusion
-4.093387	WireFusion:
-3.917295	Wisły,
-4.093387	Witherspoon.
-3.917295	Wittgenstein
-4.093387	Więc
-4.093387	Większe
-4.093387	Wobec
-4.093387	Wojciech
-4.093387	Wojciecha
-4.093387	Wojtek:
-4.093387	Wojtku,
-3.917295	Wokół
-4.093387	Wolałabym
-4.093387	Woli?
-4.093387	Wolno
-4.093387	Wolę
-4.093387	Wprawiając
-4.093387	Wprowadźmy
-3.917295	Wreszcie
-3.917295	Wrzask
-3.917295	Wrzącego
-4.093387	Wróć
-4.093387	Wskazówka:
-3.917295	Wspomina
-3.917295	Wstępie,
-4.093387	Wszechistnienie,
-3.917295	Wszyscy
-3.917295	Wszystkie
-3.917295	Wszędzie
-4.093387	Wtedy
-4.093387	Wybrzeże
-3.917295	Wycięto
-4.093387	Wydaje
-4.093387	Wykazał
-4.093387	Wykonaj
-3.917295	Wynika
-4.093387	Wynoszenie
-4.093387	Wyobraziłam
-4.093387	Wypadłaś
-4.093387	Wysiadają,
-3.917295	Wysoko
-3.917295	Wyspiańskiego!
-3.917295	Wystarczyło
-4.093387	Wzruszyłaś
-4.093387	Wówczas
-3.917295	Właśnie
-4.093387	Włoch.
-4.093387	Włączona
-4.093387	Wśród
-3.280473	XIX
-4.093387	Y,
-3.032689	Z
-4.093387	ZATOKA
-4.093387	ZEWNĄTRZ:
-4.093387	Za
-3.917295	Zabijał
-4.093387	Zabójczą
-4.093387	Zaczął
-4.093387	Zadaniom
-3.917295	Zadawać
-3.917295	Zakon.
-3.917295	Zakonem.
-3.917295	Zakonu
-4.093387	Zakończenie
-4.093387	Zakładamy,
-3.792357	Zamiast
-4.093387	Zanim
-3.917295	Zapadł
-3.917295	Zapisywałem
-4.093387	Zapraszam.
-3.917295	Zaproponował
-4.093387	Zastanawiam
-3.917295	Zastępy
-3.917295	Zatoki,
-4.093387	Zauważyłem(
-4.093387	Zaułka
-3.917295	Zawierają
-3.917295	Zawsze
-4.093387	Załóż
-4.093387	Zbigniewa
-3.917295	Zdanie
-4.093387	Zdradzisz
-3.695447	Ze
-4.093387	Zgadując,
-4.093387	Zgadzam
-4.093387	Ziemi
-3.917295	Zimno
-4.093387	Znacie
-4.093387	Znajdziesz
-3.917295	Zniszczenie
-4.093387	Zosia
-4.093387	Zosię
-4.093387	Zresztą,
-4.093387	Zrobiłaś
-3.917295	Zuchwała
-4.093387	Zwierzątko,
-3.917295	Zwykle
-4.093387	Zyskasz
-3.917295	Zza
-3.917295	Złorzeczenie
-2.502322	a
-4.093387	aberracją
-4.093387	absolutny
-3.917295	absolutnym
-4.093387	abstrakcyjną,
-4.093387	absurd
-4.093387	absurd?
-3.917295	absurdalna.
-4.093387	absurdalnych,
-2.979443	aby
-4.093387	adaptacja
-3.917295	adorowali
-4.093387	adrenaliny.
-4.093387	adwokatem?
-3.917295	aforyzmy
-4.093387	agitacja
-4.093387	agresji?
-3.917295	akceptację
-4.093387	akcji,
-4.093387	akcją
-4.093387	akompaniamencie
-3.917295	akt
-4.093387	aktor
-3.917295	aktorem,
-4.093387	aktorki?
-4.093387	aktorką.
-4.093387	aktorskiego
-4.093387	aktorzy
-3.917295	aktorów
-4.093387	aktualnym
-4.093387	aktywnego
-4.093387	akuszera,
-4.093387	al-Afghani"(
-4.093387	al-Jihad
-3.315235	albo
-4.093387	albo"
-4.093387	albo,
-4.093387	albumu"
-2.731659	ale
-3.917295	alianci
-4.093387	alkoholicy
-3.917295	alkoholu
-4.093387	alkoholu-
-4.093387	ambasady
-3.792357	ambicji
-4.093387	ambitni
-4.093387	amerykańskie
-4.093387	amfetaminę.
-4.093387	analityk
-3.917295	anarchistkę.
-4.093387	and
-3.353024	ani
-3.695447	ani,
-4.093387	animacja
-4.093387	animacje
-3.917295	animacji
-3.917295	aniołowie
-3.917295	antycznej
-3.695447	antyku
-3.917295	antyutopii
-4.093387	aplikacje
-3.917295	aplikacji
-3.917295	apostolskiego,
-3.917295	apostolstwa
-4.093387	arabski
-4.093387	archeologicznych.
-4.093387	archiwizacji-
-4.093387	archiwizacją
-3.917295	arcydzieł
-3.792357	arcydzieła
-4.093387	arcydziełami
-4.093387	arcydziełem
-3.917295	arcydzieło,
-3.917295	argumenty.
-4.093387	arkusz
-4.093387	arkuszem
-4.093387	aromatycznych
-3.917295	artykuły
-3.917295	artysty
-3.917295	artystycznych
-4.093387	artystów?
-3.917295	artystą
-3.917295	arystokrata
-3.917295	aspekty
-4.093387	astronom
-3.917295	atakowanego
-4.093387	atletami?
-3.917295	atrybutami
-4.093387	atutów.
-4.093387	autentyczne
-3.917295	autentyczności
-3.917295	automatycznie
-4.093387	autor
-3.917295	autor,
-3.917295	autorowi
-4.093387	autorskiego
-3.917295	autorytet
-3.917295	autorów
-4.093387	awantury...
-3.218325	aż
-3.549319	ażeby
-4.093387	backupy
-4.093387	badacz
-4.093387	badaczy
-4.093387	badania.
-3.917295	badań,
-4.093387	bajtów.
-4.093387	baletem.
-4.093387	banalną
-3.917295	banalną,
-4.093387	banku!
-3.218325	bardziej
-3.248289	bardzo
-3.917295	barw
-4.093387	barw.
-4.093387	barwiący
-4.093387	barwnika
-3.917295	bawarskiego
-4.093387	bawi
-3.917295	bałwochwalców.
-3.917295	baśniach.
-4.093387	bestię,
-3.917295	bestselleru.
-3.917295	bestsellerów
-3.032689	bez
-3.917295	bezbrzeżniej
-4.093387	bezceremonialnie
-4.093387	bezinteresowności,
-4.093387	bezkarnie
-4.093387	bezmyślnie?
-4.093387	bezpiecznie
-4.093387	bezpośrednio
-3.917295	bezprawia
-3.917295	bezsenną
-3.917295	bezsensownej
-3.917295	bezstronni
-3.917295	bełku
-3.917295	białe
-3.917295	biblijne
-3.917295	biblioteki,
-3.917295	biedni,
-4.093387	biedronka
-3.917295	biedy.
-4.093387	biegali
-4.093387	bieliznę,
-3.792357	bierze
-4.093387	big
-4.093387	bije
-4.093387	bin
-4.093387	biochemik
-4.093387	biodra
-4.093387	biodrach.
-4.093387	biodrami
-4.093387	biologii
-3.917295	biorą
-4.093387	biorę.
-3.917295	biskupom
-4.093387	biuro
-4.093387	biurowego
-4.093387	biurowym.
-3.917295	blisko,
-4.093387	blizny.
-4.093387	blizny?
-3.014205	bo
-3.917295	bo...
-3.917295	bodaj
-4.093387	bogato
-3.917295	bogów,
-3.695447	bogów.
-3.792357	bohater
-4.093387	bohaterów-
-4.093387	boisz
-4.093387	bojowe
-3.917295	boju
-4.093387	boją
-3.695447	boku
-4.093387	boku.
-3.917295	bolesną
-4.093387	bombowe
-4.093387	bonanzy
-4.093387	bootującej
-3.917295	borami
-4.093387	boski
-4.093387	botanik
-4.093387	bought
-3.616266	bowiem
-3.917295	bożych.
-3.792357	brak
-4.093387	brakiem
-4.093387	brakujące
-3.917295	bramy
-3.917295	bramą
-3.917295	bramę
-3.917295	brat
-4.093387	bratem
-3.695447	braterskiej
-4.093387	brałam
-3.917295	broni
-3.917295	bronią
-4.093387	broń",
-3.917295	brudne
-4.093387	brudów
-4.093387	brutalną
-3.917295	bryk
-3.917295	bryki.
-4.093387	bryłami
-3.917295	brzegu
-3.917295	brzmi
-3.917295	brzmiały"
-3.917295	brzmiące
-4.093387	brzuch.
-4.093387	brzydka.
-3.917295	brzydkie
-4.093387	budowa
-3.917295	buduje
-3.917295	budzi
-3.917295	budzić
-3.917295	budzą
-4.093387	bujasz
-3.917295	buki,
-4.093387	bunt
-4.093387	buntowniczy
-3.917295	buntu.
-4.093387	burdel.
-4.093387	burze.
-3.917295	burzycielce
-3.917295	burzyki
-4.093387	buying
-3.093387	by
-3.917295	bycia
-4.093387	byle
-3.695447	byli
-4.093387	bylibyśmy
-4.093387	byliśmy,
-3.917295	bym
-4.093387	byt
-3.917295	bytu.
-4.093387	bytów
-4.093387	bytów,
-2.947259	być
-3.093387	był
-3.394417	była
-3.695447	byłby
-4.093387	byłbym
-3.917295	byłem
-3.917295	byłeś
-3.163968	było
-3.792357	byłoby
-3.616266	były
-4.093387	były.
-3.792357	byś
-3.695447	ból
-3.917295	ból,
-3.917295	ból.
-3.917295	bólem
-3.917295	bólu
-3.917295	bądź
-3.549319	będzie
-4.093387	będzie.
-4.093387	będzie...
-4.093387	będziemy
-4.093387	będziesz
-3.695447	będą
-3.917295	błagajmy
-3.917295	błahym.
-4.093387	błogosławiona
-3.917295	błota,
-4.093387	błysk
-3.917295	błyskawica,
-3.917295	błyskawice,
-4.093387	błyszczącym
-4.093387	błąd.
-4.093387	błędnik).
-3.917295	błędnym
-4.093387	błędnymi
-4.093387	błędu.
-4.093387	cal-
-3.917295	cantilena
-3.917295	cara,
-4.093387	caryca
-4.093387	cat.
-3.394417	całe
-3.917295	całemu
-4.093387	całkiem
-3.917295	całkowicie
-4.093387	całkowicie.
-3.917295	całkowite
-3.917295	całkowitego
-3.917295	całkowitej
-3.440174	cały
-3.917295	całym
-4.093387	całą
-4.093387	cegiełką
-3.917295	ceglanymi
-3.917295	ceglanymi.
-4.093387	cel,
-3.917295	celebrując
-3.917295	celem
-3.792357	celu,
-4.093387	celu.
-3.917295	cennych
-4.093387	centralny
-4.093387	centrum
-3.917295	cenzorskich
-3.917295	ceremonii
-3.917295	cesarski-
-3.917295	cesarz
-3.917295	cesarza,
-3.917295	cesarza-
-3.917295	cesarza.
-3.917295	chama,
-4.093387	chaosie
-4.093387	chaotyczna
-4.093387	chałupniczym
-3.549319	chce
-4.093387	chce.
-4.093387	chciał,
-3.917295	chciała
-3.917295	chciałby
-3.695447	chciało
-3.917295	chciałoby
-4.093387	chcieli,
-3.792357	chcą
-4.093387	chcąc
-4.093387	chcące
-3.792357	chcę,
-3.917295	checzy
-3.917295	checzy,
-4.093387	chemiczny.
-3.917295	chełmiński
-4.093387	chińskiemu,
-4.093387	chlubnie(
-4.093387	chociaż
-4.093387	chodzenia
-3.695447	chodzi
-4.093387	chodzić
-3.917295	chodził,
-3.695447	chodziłem...
-3.917295	chorobie
-3.917295	choroby
-3.917295	choroby,
-4.093387	chorobę
-3.072197	choć
-4.093387	chrapiesz?
-4.093387	chromosom
-4.093387	chromosomalnie?
-4.093387	chroni
-3.917295	chrześcijaństwa
-3.917295	chrześcijaństwo
-3.917295	chrześcijaństwo,
-3.917295	chrztu
-4.093387	chwilami
-4.093387	chwilce
-4.093387	chwili
-4.093387	chwili,
-4.093387	chwilka
-4.093387	chwilka.
-4.093387	chwilą
-3.917295	chwilą,
-4.093387	chwilę
-3.917295	chwilę.
-4.093387	chwilę:
-3.917295	chwycił
-4.093387	chwyć
-3.491327	chyba
-4.093387	chyba,
-3.917295	chytre
-4.093387	chętka,
-4.093387	chętnie
-3.917295	chętniej
-3.917295	chętniej.
-4.093387	chłop
-4.093387	chłopak
-3.917295	chłopi-
-3.280473	ci
-3.616266	ci,
-4.093387	ciasta.
-4.093387	ciasto.
-3.917295	ciała.
-3.353024	ciało
-4.093387	ciało.
-3.917295	cichego
-3.917295	cichutku
-3.394417	ciebie
-3.917295	ciebie«
-4.093387	ciekawe...
-3.917295	ciekawej
-3.917295	ciekawsza
-3.917295	ciekawszy?
-4.093387	ciekawą
-3.917295	ciemniejszych
-3.917295	ciemnoczerwonym
-4.093387	ciemności
-4.093387	ciemności.
-3.695447	ciemnościach
-3.917295	ciemnością.
-3.917295	cieni,
-4.093387	cieniem
-3.917295	cieniu
-3.917295	cienkie
-3.792357	ciepły
-3.917295	cierpi
-3.917295	cierpienia
-4.093387	cierpienia.
-3.917295	cierpienie
-3.695447	cierpię
-3.917295	cieszą
-3.917295	cieszącego
-3.917295	cień.
-4.093387	ciotka.
-3.353024	ciszy...
-3.917295	ciąg
-3.695447	ciągu
-3.616266	cię
-3.917295	ciężar
-3.917295	ciężarów?
-4.093387	ciężko
-3.917295	cnoty
-3.917295	cnotę
-2.686846	co
-4.093387	co?
-3.315235	coraz
-3.190297	coś
-3.917295	cudach
-3.917295	cywilizacji
-3.917295	cywilizacyjnego
-3.917295	czajki
-4.093387	czarnym
-3.917295	czarującego
-3.353024	czas
-3.917295	czas,
-3.695447	czas.
-3.917295	czasach
-3.917295	czasami
-3.353024	czasem
-4.093387	czasem.
-3.616266	czasie
-3.917295	czasie,
-3.248289	czasu
-4.093387	czasu,
-3.549319	czasu.
-3.917295	czasy
-3.917295	czasy,
-4.093387	czasów,
-4.093387	czego
-4.093387	czegoś
-4.093387	czeka
-4.093387	czekającej
-4.093387	czekającą
-4.093387	czekała
-3.917295	czele
-4.093387	czeluści
-3.917295	czerpać
-3.917295	czole,
-3.695447	czoło
-3.616266	czterech
-3.695447	cztery
-3.917295	czucie,
-3.616266	czuje
-4.093387	czujesz
-4.093387	czujesz.
-4.093387	czującej
-4.093387	czuję
-3.917295	czuję,
-4.093387	czuły.
-4.093387	czułych
-3.014205	czy
-3.917295	czyhającego
-3.917295	czyli
-3.695447	czym
-3.917295	czymś
-4.093387	czymś,
-3.917295	czyni
-3.917295	czynienia
-3.917295	czyniłoby
-4.093387	czynności
-4.093387	czynną,
-3.917295	czynszowe
-3.917295	czynu,
-3.917295	czyny
-3.917295	czyny,
-3.792357	czynów
-4.093387	czystą
-3.917295	czytać,
-3.695447	czytał
-3.695447	czytelników
-3.917295	czytelników,
-3.917295	czyśćca
-3.353024	często
-4.093387	często,
-3.695447	części
-3.695447	częściej
-3.917295	część
-3.917295	członek
-4.093387	członka
-3.917295	człowiecza,
-3.695447	człowiek
-4.093387	człowiek.
-3.917295	człowieka
-4.093387	człowieka,
-4.093387	człowieka:"
-3.917295	córkę
-4.093387	cóż
-3.616266	da
-4.093387	daj
-3.491327	daje
-4.093387	daleka
-3.792357	daleki
-3.917295	dalekich
-3.917295	dalekie
-4.093387	daleko
-4.093387	daleko...
-4.093387	dali,
-4.093387	dane
-4.093387	danie
-3.917295	dano
-4.093387	danych
-3.917295	danym
-3.695447	dawna
-4.093387	dawna?
-4.093387	dawnej
-4.093387	dawnych
-3.695447	dałeś
-3.917295	dało
-3.917295	dbali
-4.093387	dbali,
-4.093387	dbać
-4.093387	dbała
-3.917295	de
-4.093387	decyzji
-3.917295	dekoracja.
-3.917295	delikatnie
-3.917295	delikatny
-4.093387	depresji
-3.917295	depresję,
-4.093387	deser.
-4.093387	deski
-4.093387	deskę
-3.917295	dialektycznie,
-4.093387	diamentów
-4.093387	diamentów!
-4.093387	diamonds!
-4.093387	dieta?
-2.630989	dla
-4.093387	dlaczego
-3.917295	dlaczego,
-3.549319	dlatego
-3.917295	dlatego,
-3.917295	dni
-4.093387	dniach
-4.093387	dnie,
-2.190297	do
-4.093387	dobiega
-3.917295	dobra,
-3.695447	dobrem
-3.917295	dobrem?
-3.917295	dobro
-3.917295	dobro,
-3.917295	dobroczynne
-3.917295	dobrodziejstwem
-3.917295	dobry
-4.093387	dobrych
-3.549319	dobrym
-3.695447	dobrze
-4.093387	dobrze,
-4.093387	dobrze.
-4.093387	doceniony.
-4.093387	dochodowego.
-4.093387	dochodzi
-4.093387	dociekania
-4.093387	dociekań
-4.093387	dociera
-4.093387	docierają
-4.093387	doczekać
-4.093387	dodamy
-4.093387	dodania
-3.917295	dodatku
-4.093387	does
-3.917295	dokonany,
-4.093387	dokonywać
-4.093387	dokumentów
-3.792357	dokładnie
-4.093387	dolarów.
-4.093387	dolegliwości
-4.093387	dolinę
-4.093387	domagają
-3.917295	domowego
-4.093387	domowego.
-4.093387	domową,
-3.616266	domu
-4.093387	domu.
-4.093387	domu?
-4.093387	doniesienia
-4.093387	donikąd.
-3.917295	donosy
-3.917295	donosy-
-3.695447	dopiero
-4.093387	dopingowała
-3.917295	doprowadzających
-3.917295	dopuszcza
-3.917295	dopuszczał
-4.093387	doradza
-3.917295	dorobku
-3.917295	dorosłego
-4.093387	dorośli.
-3.917295	dorośnie,
-3.917295	dorzucić
-4.093387	dorównuje!
-3.917295	dosięgnął
-3.917295	doskonale
-3.917295	doskonale.
-3.917295	doskonalić
-3.917295	doskonała,
-4.093387	doskonałe
-3.917295	doskonałe.
-3.917295	doskonałego
-3.917295	dostarczał
-4.093387	dostała
-3.917295	dostrzegamy
-3.917295	dostrzegłby
-3.917295	dostęp
-3.917295	doszedł
-4.093387	dosłownie
-4.093387	dot
-4.093387	dotknęło
-4.093387	dotrzeć
-4.093387	dotychczas
-3.917295	dotyczą
-4.093387	dotykają...
-4.093387	dowcipem,
-3.917295	dowierzałby
-3.917295	dowodzą,
-3.792357	dowód,
-4.093387	doznając
-3.917295	doznawszy
-4.093387	doznań
-4.093387	dołączania
-4.093387	dołączymy
-3.917295	doświadczasz
-3.917295	doświadczałeś
-3.917295	doświadczenia,
-3.917295	doświadczeniami
-4.093387	doświadczeniu
-4.093387	doświadczony
-4.093387	doświadczył
-3.917295	doświadczyłeś
-4.093387	dość
-4.093387	dożywocie
-4.093387	drabinkę
-3.917295	drewienka.
-3.917295	drewnianych
-3.917295	drewnianą
-4.093387	drgające
-4.093387	drgań.
-3.917295	drogi
-4.093387	drogą
-3.549319	drogę
-3.917295	drożynami
-4.093387	drugi
-4.093387	drugie
-4.093387	drugie,
-3.491327	drugiej
-4.093387	drugoligowy.
-3.917295	drużyny.
-3.917295	drzew.
-3.917295	drzewa
-3.917295	drzwi
-4.093387	drzwi,
-4.093387	drzwiach
-3.917295	drżała,
-4.093387	dubbingiem.
-3.695447	ducha
-3.695447	ducha,
-3.917295	duchem
-3.917295	duchowe
-3.917295	duchowego
-3.917295	duchową.
-4.093387	dudniących
-3.917295	dumanie
-3.917295	dusza.
-3.917295	duszy
-4.093387	duże.
-4.093387	dużej
-3.917295	dużo
-4.093387	dużo.
-4.093387	dużą
-3.792357	dwa
-4.093387	dwa-
-3.917295	dwa.
-3.917295	dwadzieścia
-3.695447	dwie
-3.917295	dwieście
-3.917295	dworu
-3.917295	dworu,
-3.917295	dwory
-3.917295	dwunastu
-3.917295	dwóch
-3.917295	dynamikę
-4.093387	dysku,
-3.792357	dziadki
-4.093387	dziadkiem,
-4.093387	dziale
-4.093387	dziać,
-3.917295	dział
-3.917295	działa
-4.093387	działa!
-4.093387	działalności.
-4.093387	działania
-3.917295	działanie
-4.093387	działo
-4.093387	działy
-3.917295	dzieci
-3.917295	dzieci.
-4.093387	dzieci?
-4.093387	dzieciom
-3.917295	dzieciństwie
-4.093387	dzieciństwo.
-4.093387	dzieckiem
-3.917295	dziecko
-3.917295	dziedzictwa
-4.093387	dziedzinie?
-3.616266	dziele
-4.093387	dziennikarzom.
-4.093387	dziennikarzy
-4.093387	dziennikarzy?
-4.093387	dziesiątego
-3.917295	dziesiątkuje.
-4.093387	dziesiątym
-3.917295	dziewczyna
-4.093387	dziewczyny,
-4.093387	dziewczynę.
-4.093387	dziewictwa
-4.093387	dzieł
-3.792357	dzieła
-3.917295	dzieła,
-3.917295	dzieła.
-3.917295	dzień,
-3.917295	dzikie
-3.917295	dziobie
-4.093387	dzisiaj.
-4.093387	dzisiejszej
-3.917295	dzisiejszych
-4.093387	dzisiejszym,
-3.917295	dziw
-3.917295	dziwaczny
-4.093387	dziwami
-3.917295	dziwem
-3.917295	dziwi
-3.917295	dziwi,
-4.093387	dziwki.
-3.917295	dziwne
-4.093387	dziwnie.
-4.093387	dziwnych
-3.792357	dzięki
-4.093387	dziękuje
-3.616266	dziś
-4.093387	dół-
-3.917295	dążeniu
-3.917295	dążąc
-3.917295	dębowych
-3.695447	dłoni
-3.917295	dłonie
-3.695447	dłonią
-4.093387	dłońmi.
-4.093387	długa
-3.917295	długi
-3.792357	długich
-3.917295	długo
-3.917295	długo,
-4.093387	długowłosych.
-4.093387	długości
-3.695447	dłużej
-4.093387	dłużej,
-3.917295	dźwięk
-3.917295	dźwięki
-4.093387	dźwiękowej
-4.093387	efekt.
-4.093387	efektem
-4.093387	eklektyczną
-4.093387	ekonomiczne
-4.093387	ekranie?
-3.917295	ekspansywne
-3.917295	eksperci,
-4.093387	eksperyment".
-4.093387	ekstrawagancji?
-4.093387	ekstrawaganckim
-3.917295	elementarne
-4.093387	elementarną
-4.093387	elementy
-4.093387	emerytowany
-3.917295	emocji
-4.093387	emocjonalnych,
-4.093387	emulsji
-4.093387	encyklopedii)
-3.917295	enough
-3.917295	entuzjastów,
-3.917295	epoce
-3.917295	epoki,
-3.917295	epokę
-3.917295	eseju
-4.093387	etapów
-4.093387	even
-3.917295	fabryki(
-4.093387	fabryką
-3.917295	fabuła
-4.093387	fabułą.
-4.093387	faceci
-4.093387	facet
-4.093387	facet.
-4.093387	facet:-
-4.093387	facetów.
-4.093387	fair.
-4.093387	fakt,
-4.093387	faktem.
-4.093387	faktu,
-3.917295	faktycznie.
-4.093387	faktyczny.
-4.093387	fali-
-4.093387	falować,
-4.093387	fantastycznie
-3.917295	fantazją
-3.917295	fasady,
-4.093387	fascynacje
-3.917295	fatalną
-3.917295	fałsz
-3.917295	felietony
-3.917295	figury
-4.093387	figurę.
-3.917295	film
-3.792357	filmie
-4.093387	filmowym
-3.917295	filmu
-4.093387	filmy.
-4.093387	filmów
-4.093387	filmów).
-3.917295	filozofem
-4.093387	filtru
-4.093387	filtry
-4.093387	fiołkami
-4.093387	firm(
-4.093387	firma
-4.093387	firmach,
-3.917295	firmy
-4.093387	fizyczna
-3.917295	fizycznego
-4.093387	fizyki?
-4.093387	flood
-4.093387	for
-3.917295	formą
-3.917295	fosy
-4.093387	fotograficznej
-4.093387	fotooferty
-3.917295	fragmentami
-4.093387	fragmenty...
-4.093387	francuskiego
-4.093387	francuskiej
-4.093387	fryzjerem!
-3.917295	fundamentalnej
-4.093387	funkcje:
-3.917295	funkcją,
-3.917295	furii
-4.093387	futro
-3.917295	futrzaną.
-3.917295	futurystyczna
-3.917295	gadacza.
-4.093387	galaktyk.
-4.093387	gangów
-4.093387	garść
-3.917295	gaszę
-4.093387	gazet
-3.917295	gazety.
-4.093387	gazetą
-3.917295	gburstwa
-4.093387	gdera:-
-2.932019	gdy
-4.093387	gdyby
-3.549319	gdzie
-3.792357	gdzieś
-4.093387	generacja,
-4.093387	genialną
-3.917295	gest.
-4.093387	gestem
-4.093387	gierka.
-4.093387	gigantyczną
-4.093387	gmach
-2.932019	go
-4.093387	go.
-4.093387	godności.
-4.093387	godzin
-3.917295	godzinie.
-3.917295	godziny
-4.093387	gorzej,
-4.093387	gorączkowo
-4.093387	gospodarzem;
-4.093387	gotowych
-4.093387	gotów
-3.917295	gołębia
-3.917295	gończe
-4.093387	gra
-3.917295	grabów
-3.695447	graf
-3.917295	grafa
-4.093387	graficzne,
-4.093387	grafomanią
-4.093387	gram
-3.917295	granic
-3.917295	granice
-3.917295	granice,
-4.093387	graną
-3.917295	grać
-4.093387	grałam.
-3.917295	greckiej
-3.695447	grobu
-3.917295	grobów,
-3.917295	grodom
-4.093387	gronie
-3.917295	gronostajami,
-4.093387	groteską
-4.093387	groźne
-4.093387	gruba
-3.549319	grube
-3.917295	grubopienne
-4.093387	grudami
-4.093387	grudka
-4.093387	grunt
-3.917295	grunt.
-4.093387	grupie.
-4.093387	gry
-3.917295	gry?
-3.917295	grzechu
-3.917295	grzeszności
-3.917295	grzeszności?
-4.093387	grzmoty
-3.917295	grób.
-3.917295	gumy.
-4.093387	gwarantuje
-4.093387	gwardzistami.
-3.917295	gwałciciel
-4.093387	gwiazd
-3.792357	gwiazdy
-4.093387	górnej
-3.695447	góry
-3.917295	górę
-4.093387	gównem,
-3.917295	gęby.
-3.917295	gędził.
-3.917295	gęsi
-4.093387	gęstnieje,
-3.917295	głos,
-3.917295	głosimy
-3.917295	głosząc
-3.917295	głosów.
-3.917295	głowie
-4.093387	głowie.
-3.917295	głową
-4.093387	głowę?
-4.093387	głośnika,
-4.093387	głośników
-4.093387	głośników-satelitów,
-3.917295	głośno
-4.093387	głównego
-3.917295	głównej
-4.093387	głównie
-3.917295	główny
-4.093387	głównych
-3.917295	główną
-4.093387	głąb
-3.917295	głębi.
-4.093387	głębiej
-3.917295	głębin
-3.792357	głęboko
-3.792357	głębokości
-3.917295	głęboką
-4.093387	have
-4.093387	hałaśliwych
-4.093387	he.
-4.093387	hemoroidów
-4.093387	her
-4.093387	herbaty
-4.093387	hierarchiczną.
-3.917295	hierarchię
-4.093387	hipercieniutkich
-4.093387	hipoteza.
-3.917295	historia
-3.917295	historie
-3.695447	historii
-3.695447	historię
-3.917295	historyczne
-4.093387	historycznych
-3.917295	ho
-3.917295	ho!
-4.093387	hokejowego
-4.093387	honorowej
-4.093387	hormony,
-4.093387	horrory
-4.093387	horyzonty,
-3.917295	huczy
-1.793444	i
-4.093387	i"
-3.695447	i,
-3.917295	i...
-3.093387	ich
-4.093387	idealnie,
-4.093387	idealnym,
-3.917295	idealną
-4.093387	ideału?
-4.093387	ideały
-3.917295	identyczna.
-3.917295	ideologiczną
-3.917295	idiotyczny
-4.093387	idzie
-3.695447	idzie,
-3.917295	idziemy
-3.917295	idą
-4.093387	idą,
-3.917295	igrać
-3.917295	igły
-3.440174	ile
-4.093387	ilością
-3.917295	iluminacja.
-3.917295	iluzji.
-3.917295	iluzoryczna
-4.093387	iluzyjnym
-3.695447	im
-4.093387	image
-3.917295	imienia
-3.917295	imię
-4.093387	impreza
-4.093387	imprezy.
-4.093387	imprezy...
-3.917295	in
-4.093387	in.
-3.917295	inaczej
-3.917295	inaczej.
-4.093387	inch)-
-4.093387	indywidualnych
-3.917295	indziej.
-4.093387	informacji
-3.917295	informację,
-4.093387	informowania,
-4.093387	inhalacji)
-4.093387	inna
-3.792357	inne
-3.616266	innego
-3.917295	innego,
-3.917295	innego.
-3.695447	inni
-3.917295	inny
-3.695447	innych
-3.695447	innych.
-3.549319	innym
-3.917295	innym.
-4.093387	instalowane
-4.093387	instalowany
-4.093387	instrukcja
-3.917295	instrumentu
-4.093387	instrumentu?
-4.093387	instruujecie
-3.917295	instynkt
-3.917295	instynktów
-4.093387	instytucją.
-3.917295	insygnia
-4.093387	integralny
-4.093387	interaktywne.
-4.093387	interesować
-4.093387	interesującą
-4.093387	interfejsu
-4.093387	internetowym:
-3.917295	interpretacji
-4.093387	interwencji
-4.093387	intrygującą
-4.093387	intuicją
-4.093387	intymne
-4.093387	irracjonalne
-4.093387	is
-3.616266	istnieje
-3.792357	istnieje,
-4.093387	istniejące,
-3.917295	istnienia
-4.093387	istnienia:
-4.093387	istnienie.
-4.093387	istnieniu.
-4.093387	istnieć,
-3.695447	istotę
-4.093387	it
-3.917295	itd.
-4.093387	itp.).
-3.695447	izby
-3.353024	iż
-3.280473	ja
-4.093387	ja!
-3.917295	ja-
-3.917295	jadowitego
-2.454897	jak
-4.093387	jak,
-4.093387	jak.
-3.792357	jaka
-3.792357	jakaś
-4.093387	jakby
-3.549319	jaki
-4.093387	jakich
-3.917295	jakichkolwiek
-3.792357	jakichś
-3.695447	jakie
-3.917295	jakiegoś
-3.440174	jakieś
-3.917295	jakim
-3.917295	jakimi
-4.093387	jakimiś
-4.093387	jakimś
-3.792357	jakiś
-3.115663	jako
-3.917295	jakoby
-4.093387	jakoś
-4.093387	jakość,
-3.792357	jaką
-3.917295	jakąkolwiek
-3.917295	jakąś
-4.093387	jasna,
-3.917295	jasna.
-3.917295	jasne
-3.917295	jasno
-4.093387	jaw,
-4.093387	jawna
-3.917295	jałowca
-3.032689	je
-3.616266	jeden
-3.917295	jedna
-3.072197	jednak
-3.917295	jednak,
-3.917295	jednakowoż
-3.616266	jednej
-3.917295	jedni
-3.695447	jedno
-4.093387	jedno:
-3.917295	jednocześnie
-4.093387	jednolitej
-3.792357	jednostki
-4.093387	jednozdaniowej
-3.792357	jednym
-3.917295	jednym,
-4.093387	jedną
-4.093387	jedną,
-4.093387	jedynaczką,
-3.792357	jedynego
-3.695447	jedynie
-3.917295	jedynie,
-3.917295	jedynki
-3.917295	jedyny,
-2.713176	jego
-3.163968	jej
-3.917295	jelenich
-4.093387	jelenie!
-3.917295	jenże
-2.407645	jest
-4.093387	jest-
-4.093387	jest.
-4.093387	jest?
-3.616266	jestem
-4.093387	jestem,
-4.093387	jestem.
-3.440174	jesteś
-4.093387	jesteś.
-3.792357	jesteśmy
-2.963053	jeszcze
-3.917295	jeszcze,
-3.491327	jeśli
-4.093387	jeśli,
-3.917295	jeździł
-3.917295	junacka
-4.093387	jutro
-2.781633	już
-3.353024	ją
-4.093387	ją,
-4.093387	ją?
-4.093387	jądrze
-3.917295	jął
-3.792357	język
-3.917295	językiem
-4.093387	kaca.
-3.917295	kaczki
-3.917295	kalin
-4.093387	kalkulacyjny
-4.093387	kalkulacyjnym
-4.093387	kamerami.
-3.917295	kamieni
-3.917295	kamienice
-3.917295	kamienne
-3.917295	kamienny
-4.093387	kanapie
-4.093387	kanapie,
-3.917295	kapeluszy
-4.093387	kariera
-3.917295	karierę.
-4.093387	karmy
-4.093387	kartkach
-4.093387	kaset.
-4.093387	katalogu.
-3.917295	katastroficznie",
-3.917295	katedr.
-3.917295	katedrę,
-3.917295	kategoriach
-4.093387	kategoriach,
-4.093387	kawałki
-4.093387	kawy
-4.093387	kawę,
-3.917295	kazać
-4.093387	kazał
-4.093387	każda
-3.917295	każde
-3.695447	każdego
-3.917295	każdej
-3.549319	każdy
-3.549319	każdym
-4.093387	każdą
-3.917295	każe
-3.917295	kidzeną,
-3.394417	kiedy
-3.549319	kiedykolwiek
-3.792357	kiedyś
-3.917295	kiereję
-3.917295	kierując
-4.093387	kierujące
-3.917295	kiełpie
-3.917295	kijem.
-3.917295	kijowskie
-3.616266	kilka
-4.093387	kilkadziesiąt
-4.093387	kilkoma
-3.917295	kilku
-4.093387	kilkunastu
-4.093387	kilograma.
-4.093387	kilogramów.
-3.792357	kim
-4.093387	kimś-
-4.093387	kina
-4.093387	kina.
-4.093387	kinie
-4.093387	kiszonych
-3.917295	kiwają
-3.917295	klamry
-3.917295	klasyków,
-4.093387	klatkę
-3.917295	klawesynie
-3.917295	klawisz,
-3.917295	klepanie
-4.093387	klucz
-4.093387	kluczowego.
-4.093387	kluczowych
-4.093387	kluczowymi.
-3.917295	klątwę,
-3.917295	klęsce
-3.917295	klęsk
-4.093387	kobiecość
-4.093387	kobiecych
-4.093387	kobiet.
-3.917295	kobieta
-3.616266	kobiety
-4.093387	kobiety.
-4.093387	kobietą.
-4.093387	kobietę.
-4.093387	kocha
-3.917295	kocha,
-4.093387	kochają,
-4.093387	kocham
-4.093387	kochankami.
-4.093387	kochaną
-4.093387	kochać
-4.093387	kochać,
-4.093387	kogo?
-3.792357	kogoś
-3.917295	kojarzy
-3.917295	kolacja
-4.093387	kolacje
-4.093387	kolana
-3.917295	kolano
-4.093387	koledzy
-4.093387	kolej,
-3.792357	kolejkowe
-4.093387	kolejne
-4.093387	kolejnego
-3.792357	kolejny
-3.917295	kolejnych
-4.093387	kolejną
-4.093387	kolidować
-4.093387	kolorowego
-3.917295	kolorowej
-3.917295	kolorowy
-3.917295	kolorze
-4.093387	kolorów
-4.093387	kolorów-
-4.093387	kolumn.
-3.917295	komedię,
-3.917295	komentatorzy
-4.093387	komie
-3.917295	kominami
-4.093387	komisy
-4.093387	kompleks
-4.093387	kompleksu
-4.093387	komplement.
-4.093387	kompletnej
-3.917295	komputer
-3.917295	komputer.
-4.093387	komputerach
-4.093387	komputery
-4.093387	komputerze
-4.093387	komputerów
-4.093387	koncert
-3.917295	konflikt
-4.093387	konflikt,
-3.549319	koniec
-4.093387	koniecznie
-3.792357	konieczności
-4.093387	konkretnym
-3.917295	konsekwencje
-3.917295	konspiratorzy
-4.093387	konstrukcji
-4.093387	konstrukcją,
-3.917295	kontakty
-3.917295	kontekst
-4.093387	kontroli
-4.093387	kontrolę
-3.917295	kontrowersyjne.
-4.093387	kopalni
-3.917295	kopia
-4.093387	kopią
-3.917295	korbę
-3.917295	korbę.
-3.917295	kormorany
-3.917295	koronek
-4.093387	korzystam
-4.093387	korzystasz
-4.093387	korzyści
-4.093387	kosmetyków
-4.093387	kosmosie.
-4.093387	kosmosu.
-4.093387	kostiumach
-4.093387	kostiumowych,
-3.917295	kostiumów
-3.917295	kota
-4.093387	koziołków
-3.917295	kołatał.
-3.917295	kołysany
-4.093387	kołysząc
-3.792357	końca
-3.917295	końca,
-3.917295	końcowym
-3.616266	końcu
-3.917295	kończy
-3.917295	kończyć
-3.917295	końców
-4.093387	kości
-3.917295	kościelną
-3.917295	kościoły.
-3.917295	kośćmi
-3.917295	krain
-4.093387	krainie,
-3.440174	krainy
-3.917295	krainę,
-3.917295	kraju
-3.917295	krańce
-4.093387	krem
-4.093387	kremy
-4.093387	kreskówki
-4.093387	kresu.
-3.917295	krewniak
-3.917295	krok,
-3.917295	kroki.
-4.093387	krokodylek
-3.917295	kropki
-3.917295	krwawego
-3.917295	krwawej
-4.093387	krwawię,
-4.093387	krwawię...
-3.917295	krwawnika
-3.917295	krwawą
-3.917295	krwi
-4.093387	krwiawię,
-4.093387	krwistych
-4.093387	kryształów
-3.917295	krył
-3.917295	krzywdy
-3.917295	krzywdy?
-4.093387	krzywego
-3.917295	krzyż.
-3.917295	krzyża,
-4.093387	krzątał
-3.917295	króla
-3.917295	króla.
-3.917295	królestwa
-3.917295	królestwa.
-3.917295	królestwo.
-3.917295	królewic,
-3.917295	królewski,
-3.917295	królewskiej.
-3.917295	krótki
-4.093387	krótkie
-4.093387	krótkometrażowego
-4.093387	krążenia
-4.093387	krążka.
-3.917295	krążki
-4.093387	krążku
-4.093387	kręciło
-4.093387	kręcących
-4.093387	kręgach
-4.093387	kręgi
-3.917295	ksiąg,
-4.093387	książce),
-3.792357	książek
-3.917295	książek.
-3.917295	książka
-4.093387	książkach.
-3.491327	książki
-3.917295	książki,
-3.917295	książki.
-3.792357	książkę
-3.695447	książę
-4.093387	książęcej
-4.093387	księcia
-3.917295	księdza
-3.917295	księgi.
-3.917295	księgą
-4.093387	księstwa,
-3.917295	kształtuje
-4.093387	kształtów
-3.440174	kto
-3.491327	ktoś
-3.440174	która
-4.093387	która,
-3.014205	które
-3.394417	którego
-3.695447	której
-3.139144	który
-3.115663	których
-3.218325	którym
-3.917295	któryś
-3.315235	którzy
-3.616266	którą
-3.491327	ku
-4.093387	kuchennej
-4.093387	kukuruźnikiem
-4.093387	kuleczki
-3.917295	kuligi
-4.093387	kultem
-4.093387	kultowym
-4.093387	kultury
-4.093387	kumulacji
-4.093387	kup
-3.917295	kupić
-4.093387	kupię
-4.093387	kupującym
-4.093387	kupuję,
-4.093387	kurtynę
-4.093387	kwantowymi
-3.917295	kwiaty
-4.093387	kwiatów...
-3.917295	kwietniu
-4.093387	kółkach.
-3.917295	kąpieli
-4.093387	kąpielowych
-4.093387	kątem
-3.917295	kłopot.
-3.917295	lasek
-3.917295	lasy
-3.917295	lasy,
-3.394417	lat
-4.093387	lat-
-3.695447	lata
-4.093387	lata-
-4.093387	latach
-4.093387	latają,
-4.093387	latać?
-4.093387	late
-4.093387	laty
-3.917295	leciały.
-2.996477	lecz
-3.917295	leczenia
-4.093387	leczy
-4.093387	leczą.
-3.917295	legat
-4.093387	lekarz
-4.093387	lekarzy
-4.093387	lekceważyć
-3.792357	lekcji
-4.093387	lekkim
-4.093387	lekko
-3.917295	lekkomyślny
-3.917295	leksykony
-3.917295	leków
-3.792357	lepiej
-4.093387	lepiej-
-3.917295	leszczyny
-4.093387	lewe
-3.792357	lewego
-3.616266	lewym
-4.093387	lewą
-3.917295	leśne.
-3.695447	leżał
-4.093387	leży
-3.917295	liberalizm
-4.093387	liczbę
-4.093387	licznych
-4.093387	liczy?
-3.917295	licząc
-4.093387	linie
-4.093387	linii
-3.917295	lirę
-4.093387	listu
-3.792357	listy
-3.917295	literackiego
-3.917295	literki
-4.093387	literowe
-3.917295	litości.
-4.093387	litych
-3.917295	liście
-4.093387	lokalnej
-4.093387	loki
-4.093387	lokomocji.
-3.917295	lokomotywy,
-4.093387	los
-4.093387	lotnictwa.
-4.093387	loży
-3.549319	lub
-3.917295	lub:
-3.917295	lubi
-3.917295	lubisz
-4.093387	lubię
-4.093387	lubię,
-4.093387	lubiłem
-4.093387	lubrykantem.
-4.093387	ludu,
-3.917295	ludy
-3.616266	ludzi
-3.549319	ludzi,
-3.440174	ludzie
-4.093387	ludziom
-3.917295	ludzka
-3.695447	ludzkich
-4.093387	ludzkie
-4.093387	ludzkiej
-3.917295	ludzkiej.
-3.917295	ludzkości,
-4.093387	ludzkości-
-3.695447	ludzkości.
-3.917295	ludzkości:
-3.917295	ludzkość
-3.917295	ludźmi
-4.093387	luksusowa.
-3.917295	lusterka.
-4.093387	lustro,
-3.917295	lustrze.
-4.093387	lutym,
-3.792357	lęk
-3.917295	lęku,
-3.917295	lęków
-3.917295	lśniącymi
-3.695447	m
-4.093387	m.
-3.792357	m.in.
-2.932019	ma
-4.093387	ma-
-4.093387	macho.
-4.093387	magazynu
-3.917295	magiczna
-3.917295	magiczną
-3.917295	magnetofonów
-4.093387	maja
-3.280473	mają
-3.917295	majątkowych
-4.093387	makatek.
-3.917295	maksymy
-3.917295	malowany
-3.549319	mam
-3.917295	mamy
-4.093387	mamę.
-4.093387	manier
-3.917295	manierę
-3.917295	manifestować.
-3.917295	manifestują
-3.917295	manifesty
-4.093387	manii
-4.093387	marce
-3.917295	margrafom
-4.093387	marszczy
-4.093387	martwej
-3.917295	martwą,
-4.093387	marynarki
-4.093387	marzeń
-3.917295	marzyła
-3.917295	masa
-4.093387	masaże
-3.917295	maską
-4.093387	masowo
-4.093387	masowymi
-4.093387	masywnych
-3.792357	masz
-4.093387	maszyny,
-4.093387	masło
-3.917295	matek:
-4.093387	matematycznej
-3.917295	materialny
-4.093387	materialnych
-4.093387	materiał(
-4.093387	matką(
-4.093387	may
-4.093387	mała
-4.093387	małe
-3.917295	małe).
-4.093387	małego
-3.917295	mało
-3.792357	mały
-4.093387	małych
-4.093387	małżeństwo
-4.093387	medialnego
-3.917295	mego
-4.093387	menda
-4.093387	menu
-3.917295	metafizyczny
-4.093387	metafizyka,
-4.093387	metafizyka.
-3.917295	metafora
-3.917295	metafory
-4.093387	metodycznemu
-4.093387	metodę
-3.917295	metr
-3.917295	metrów.
-3.917295	mewy.
-3.115663	mi
-3.917295	mi,
-4.093387	miara
-4.093387	miarą
-3.353024	miał
-4.093387	miała
-4.093387	miałam
-3.695447	miało
-4.093387	miałoby
-4.093387	miałyby
-3.917295	miecz.
-3.917295	miecza
-3.917295	mieczach
-3.917295	mieczem,
-4.093387	miedzi
-4.093387	miejsca.
-3.792357	miejsce
-3.917295	miejsce,
-4.093387	miejscem
-3.549319	miejscu
-3.792357	miejscu,
-3.917295	miejscu.
-3.917295	miejskie,
-3.917295	mieli
-4.093387	miesiącami
-3.917295	miesiącu
-4.093387	mieszankę
-4.093387	mieszkania
-3.917295	mieszkaniu
-4.093387	mieszkanka
-3.616266	mieć
-3.917295	mieście.
-4.093387	mignęło,
-4.093387	mikrokosmosu
-4.093387	mikroskopijnego
-4.093387	milczenia,
-4.093387	milczeniem,
-3.917295	milczeć,
-4.093387	milczeć.
-4.093387	milczy,
-4.093387	miliardów
-4.093387	milimetr
-3.917295	milion
-4.093387	miliona
-3.917295	mimo
-4.093387	miniaturowym
-4.093387	minimum.
-4.093387	minione
-4.093387	ministerstwa,
-4.093387	minutach
-3.917295	miotał
-3.917295	misternie
-4.093387	misterny
-3.695447	mistrz
-3.917295	mistrza
-3.917295	mistrzowie
-4.093387	mitologia.
-3.917295	mitu
-3.917295	mity
-4.093387	miód
-3.616266	między
-4.093387	międzyludzkie.
-3.917295	międzymorza,
-4.093387	mięsa.
-4.093387	mięśnie
-4.093387	miłe
-3.394417	miłości
-3.917295	miłością
-4.093387	miłośników
-3.353024	miłość
-3.792357	miłość,
-4.093387	miłość-
-3.917295	miłą
-3.917295	mknie
-3.014205	mnie
-4.093387	mnie,
-4.093387	mnie.
-3.549319	mniej
-4.093387	mniejsze
-4.093387	mnożenia,
-3.917295	mną
-4.093387	mobilizują
-3.917295	moc
-3.917295	mocami.
-3.917295	mocarstwo,
-4.093387	mocnego
-4.093387	mocnej
-4.093387	mocy
-3.917295	mocy,
-3.917295	mocą
-3.917295	modlimy
-3.917295	modlitwie.
-3.917295	modlitwy
-3.917295	modlitwą
-3.917295	modlitwę
-3.917295	modlił
-4.093387	modne
-4.093387	modułu
-3.917295	mogiły.
-3.792357	mogą
-3.695447	mogąc
-3.616266	mogę
-3.917295	mogła
-4.093387	mogłam
-3.695447	moim
-3.549319	moja
-3.695447	moje
-3.917295	mojej
-4.093387	molestowani
-4.093387	molestowania.
-3.549319	momencie
-3.917295	moment,
-3.917295	momentom,
-4.093387	momentu,
-3.917295	moralności.
-4.093387	mordercami?
-4.093387	mordercy
-3.917295	morskiej
-3.917295	morskim
-4.093387	morską(
-3.695447	morza
-4.093387	morza.
-3.792357	morze
-3.917295	motoryzacja
-3.917295	mową
-2.741204	może
-4.093387	może,
-3.792357	może.
-3.695447	możemy
-3.695447	możesz
-4.093387	możliwe
-4.093387	możliwe".
-3.792357	możliwe,
-3.792357	możliwości
-3.917295	możliwościach.
-4.093387	możliwość
-3.917295	możliwy
-3.315235	można
-3.190297	mu
-4.093387	mudżahedinów
-3.917295	murami
-3.917295	mury
-3.695447	murów
-3.248289	musi
-4.093387	musiałem
-4.093387	musiało
-4.093387	musiały
-4.093387	musisz
-4.093387	muszkę?
-3.917295	muszą
-3.792357	muszę
-3.917295	muszę?
-4.093387	muzyce.
-3.917295	muzyckie
-4.093387	muzycznie?
-3.792357	muzyki
-3.917295	muzyki,
-3.917295	muły
-4.093387	my
-4.093387	mycia
-3.695447	myśl
-3.917295	myśl!
-4.093387	myślała
-4.093387	myśleniu
-3.616266	myśleć
-3.917295	myśleć,
-3.917295	myśli
-3.792357	myśli,
-3.917295	myśli.
-3.917295	myślnika.
-3.917295	myślom
-4.093387	myślowym
-3.695447	myślą
-3.549319	mógł
-4.093387	mógł,
-4.093387	mógłby
-3.917295	mógłbyś
-3.616266	mój
-3.917295	mór
-3.491327	mówi
-3.549319	mówi,
-3.792357	mówi.
-3.917295	mówi:
-4.093387	mówicie,
-3.917295	mówią
-4.093387	mówią,
-3.917295	mówić
-3.792357	mówić,
-3.917295	mówić.
-4.093387	mówił,
-4.093387	mówiła,
-4.093387	mówiłaś,
-3.917295	mówiło
-4.093387	mózgu?
-3.917295	mądrości
-4.093387	mąkę,
-4.093387	męki
-3.917295	męki.
-3.917295	męką
-3.917295	męskie-
-4.093387	męskim.
-4.093387	męskim...
-3.917295	męstwa
-4.093387	mężczyzn
-4.093387	mężczyzna
-4.093387	mężczyzna,
-4.093387	mężowi
-3.917295	młoda
-4.093387	młodego
-3.917295	młodej
-3.917295	młodocianej
-4.093387	młodsza.
-3.917295	młodsze
-3.917295	młodszy,
-3.917295	młody
-3.917295	młodzieńca,
-4.093387	młodzieży.
-3.917295	młot
-4.093387	młotem,
-1.986177	na
-4.093387	na"
-4.093387	nabierają
-3.917295	nabierający
-4.093387	nabierzesz
-3.917295	nachylił
-3.917295	nacisku.
-4.093387	naczyń...
-3.115663	nad
-3.917295	nadal
-3.917295	nadawało
-3.917295	nadać
-4.093387	nadmiernym
-4.093387	nadużywania
-4.093387	nadwagę
-3.917295	nadziei
-3.917295	nadziei,
-4.093387	nadziei.
-3.917295	nadzieja,
-3.917295	nadzieją
-4.093387	nadzieję,
-3.917295	nagięty
-4.093387	nagle
-4.093387	naiwnie
-3.616266	najbardziej
-3.917295	najbliższej
-4.093387	najchętniej
-3.917295	najcieńszą
-3.440174	najczęściej
-3.917295	najczęściej?
-3.917295	najdoskonalszej
-4.093387	najdrobniejsza
-3.917295	najdrobniejszym
-3.917295	najgorsza
-4.093387	najgroźniejszego
-4.093387	najgłośniejszym
-3.616266	najlepiej
-4.093387	najlepszej
-3.917295	najlepszych
-3.792357	najlepszym
-4.093387	najlepszą
-3.616266	najmniej
-4.093387	najniższego,
-4.093387	najniższy
-4.093387	najnowszym"
-4.093387	najpierw
-4.093387	najszybciej
-3.917295	najsłabszego
-3.917295	najtrudniejszych
-4.093387	najukochańsze
-3.917295	najważniejsze?
-3.917295	najwcześniejszy
-4.093387	najwięcej,
-4.093387	największe
-3.616266	największy
-3.917295	największym
-4.093387	najwyższym
-3.917295	najzupełniej
-3.917295	nakapał
-3.917295	nakrycia,
-4.093387	nakładam
-3.792357	należałoby
-3.917295	należną
-3.917295	należy
-3.695447	należą
-3.190297	nam
-3.917295	nam,
-4.093387	namacalna
-3.917295	napadają
-4.093387	napadnięty,
-3.917295	napastnicy
-3.917295	napełnia!
-4.093387	napisane
-3.917295	napisanego
-3.917295	napisać
-3.917295	napisał
-3.917295	napisałem
-4.093387	napotkanego
-3.917295	napotkałeś
-3.549319	naprawdę
-4.093387	naprawdę.
-4.093387	naprawdę?
-4.093387	narasta
-3.917295	naraz
-4.093387	narodzin.
-4.093387	naruszających
-4.093387	narzeczona...
-4.093387	narzędzie
-3.917295	narzędzie.
-4.093387	narzędziem
-3.139144	nas
-3.792357	nas,
-3.491327	nas.
-4.093387	nastolatki
-3.917295	nastroił,
-3.917295	następnie
-3.917295	następstwem
-3.917295	następujących
-4.093387	nasz
-3.917295	nasza
-3.695447	nasze
-3.917295	naszego
-3.695447	naszej
-4.093387	naszemu
-4.093387	naszych
-3.491327	naszym
-4.093387	naszą
-3.549319	natomiast
-3.917295	natura
-3.917295	naturalne,
-4.093387	naturalnym,
-3.917295	natury
-3.917295	natury,
-3.917295	naturę
-3.917295	nauczaniem
-3.917295	nauki,
-3.917295	naukom,
-3.917295	naukowcy
-4.093387	naukowiec,
-4.093387	naukowych
-3.139144	nawet
-4.093387	nawilżający
-4.093387	nawozem.
-4.093387	nawyki.
-4.093387	nawyków
-3.917295	nazbyt
-3.917295	nazwana,
-4.093387	nazwał
-3.917295	nazwy"
-4.093387	nazywa
-4.093387	nazywany
-3.917295	naładowanych
-4.093387	nałogu,
-4.093387	nałożysz
-4.093387	naświetlonej
-4.093387	negatywne
-3.917295	ni
-3.917295	ni,
-3.695447	niby
-4.093387	niby(
-3.353024	nic
-3.353024	nich
-3.695447	nich,
-4.093387	nich.
-3.917295	nicości".
-3.792357	nicość
-4.093387	nicość,
-4.093387	nicość...
-3.792357	niczego
-4.093387	niczym
-2.028929	nie
-3.695447	nie,
-4.093387	nie?
-4.093387	nieba.
-3.917295	niebawem
-3.917295	niebiańska
-3.917295	niebiesiech,
-3.917295	niebieskiej?
-3.917295	niebios
-3.917295	niebios...
-3.917295	niebiosa
-3.917295	niebiosa.
-4.093387	niebycie,
-4.093387	niebyt.
-3.616266	niech
-3.917295	niechaj
-4.093387	niechlubnie?)
-4.093387	niechęci
-4.093387	niecnym
-4.093387	niecną
-3.917295	nieco
-4.093387	nieco,
-3.917295	nieczytany
-3.917295	nieczytelna.
-3.917295	niedoczytanej
-4.093387	niedowagę
-3.917295	niefrasobliwość
-3.616266	niego
-3.917295	niego,
-4.093387	nieistnienia.
-4.093387	niej
-4.093387	niej.
-3.917295	niejeden
-3.549319	niekiedy
-3.917295	niekoniecznie
-4.093387	niektóre
-3.917295	niektórych
-4.093387	niekłamaną
-3.394417	niemal
-4.093387	niemiara
-3.917295	niemieckie
-3.792357	niemieckiego
-3.917295	niemieckiemu
-3.917295	niemożliwe
-4.093387	niemożliwą.
-3.917295	niemu
-4.093387	nieobecność
-4.093387	nieobecność.
-3.917295	nieoczekiwana
-4.093387	nieodpartą!
-4.093387	nieodwołalną
-3.917295	nieodwzajemnionej
-3.917295	nieogarnione
-4.093387	nieograniczone
-4.093387	nieosiągalnego
-4.093387	niepodzielne
-4.093387	niepodzielną
-4.093387	niepokojącą
-3.917295	nieporozumieniem.
-3.917295	nieposłuszny:
-3.917295	niepotrzebnych
-4.093387	niepotrzebującym
-3.917295	niepowodzenia
-4.093387	nieprawdopodobnie
-4.093387	nieprzegotowanej
-4.093387	nieprzezroczystości
-4.093387	nieprzydatnym.
-3.917295	nieprzyjaciel
-3.917295	nieprzyjaciół.
-4.093387	niepyszni
-3.695447	nieraz
-3.917295	nieruchomego
-4.093387	nieruchomości
-4.093387	nieruchomości).
-3.917295	nierychło
-4.093387	nieskończonych
-3.917295	nieskończoną
-4.093387	niesmak,
-3.917295	niespodzianej
-3.917295	niespodzianki
-4.093387	niespokojny
-3.917295	niesprawiedliwych
-3.917295	niestrudzony
-3.917295	nieszczęścia
-4.093387	nieszkodliwe
-4.093387	niesłychanie
-4.093387	nieudana,
-4.093387	nieustannie
-3.917295	nieustanną
-4.093387	nieużytym
-3.917295	niewiele
-4.093387	niewielka.
-4.093387	niewielkich
-3.917295	niewolę,
-4.093387	niewygód.
-4.093387	niewykluczone-
-4.093387	niewymagającym
-3.917295	niewyobrażalne.
-4.093387	niewyrażalne
-4.093387	niewyrażalne,
-4.093387	niewyrażalnego
-4.093387	niewyrażalny
-4.093387	niewzruszalną
-4.093387	niezapomniane
-4.093387	niezbędne
-3.917295	niezbędnym
-3.917295	niezliczone,
-3.917295	nieznanej
-3.917295	niezwyciężonego
-4.093387	nieładne,
-4.093387	nieładzie
-3.917295	nieśli
-3.917295	nieślubny
-4.093387	nieśmiałą
-4.093387	nieżywych
-3.440174	nigdy
-3.695447	nigdzie
-3.917295	nikczemność.
-3.917295	nikogo,
-3.491327	nikt
-3.315235	nim
-4.093387	nim.
-4.093387	nimfomania
-4.093387	nimfomanki
-3.491327	nimi
-4.093387	nimi?
-3.917295	niosą
-4.093387	niosące
-3.917295	niosącą
-3.917295	niszczą
-3.917295	niszczą.
-4.093387	niteczek,
-3.695447	niweczyły
-3.917295	niósł
-3.917295	nią
-4.093387	nią.
-2.979443	niż
-3.695447	niżej
-3.917295	niższości.
-3.917295	no
-3.917295	noc
-4.093387	nocach
-3.917295	nocy
-4.093387	nocy.
-3.917295	nogi,
-3.917295	nogą
-3.917295	nogą,
-4.093387	norek,
-3.917295	nosisz
-4.093387	noszone
-3.792357	not
-3.917295	nowa.
-3.616266	nowe
-3.695447	nowego
-3.917295	nowej
-3.917295	nowemu
-4.093387	nowiem
-3.917295	nowotna
-3.792357	nowy
-3.917295	nową
-4.093387	nośnikiem
-3.491327	np.
-4.093387	nudą
-3.917295	nury
-4.093387	nęcąca
-2.491327	o
-3.917295	obalił,
-3.917295	obawiasz?
-3.917295	obawom,
-4.093387	obciążeniem?
-4.093387	obdarzonych
-3.695447	obdarzonym
-3.917295	obdarzyć
-3.917295	obecność
-3.917295	obejmuje
-4.093387	obejmuje,
-4.093387	obejrzenia.
-4.093387	obejrzeć
-4.093387	obejrzysz
-3.917295	obfitość.
-3.917295	obiecał
-4.093387	obiecujące
-4.093387	obiektu
-4.093387	obiekty
-4.093387	obiektywny
-4.093387	obiektów
-4.093387	obiektów.
-4.093387	obiera
-3.695447	obietnice
-3.917295	obietnicą
-3.917295	obitej
-3.917295	obić
-3.917295	obić".
-3.616266	objawia
-3.917295	objawiające
-4.093387	oblec
-3.917295	oblepiony
-3.917295	obliczem.
-4.093387	obliczeń.
-3.695447	obliczu
-3.917295	oblężeniach
-3.917295	obmierzły
-3.917295	obmyty
-4.093387	obnażał
-3.917295	obnażony
-3.917295	obojętnością
-3.917295	obok
-4.093387	obowiązkami.
-3.917295	obozowisk
-3.917295	obozu
-3.917295	obraca
-3.491327	obraz
-3.917295	obraz.
-4.093387	obrazie
-3.917295	obrazy
-3.917295	obrazy.
-3.695447	obraża
-3.917295	obronić
-4.093387	obrotów
-4.093387	obserwatora
-4.093387	obserwatora),
-4.093387	obsesja
-4.093387	obszar
-4.093387	obszarów
-4.093387	obsługi
-4.093387	obu
-4.093387	obu.
-4.093387	oburącz(
-3.917295	obwałował.
-4.093387	obyczajowych?
-4.093387	obywatel
-4.093387	obywatele,
-3.917295	obłokami
-4.093387	oceniona
-3.917295	oceną.
-4.093387	ochoty
-3.917295	ociąga
-4.093387	ociężale.
-4.093387	oczami.
-4.093387	oczom
-4.093387	oczu.
-3.792357	oczy
-4.093387	oczy,
-3.917295	oczyma
-3.917295	oczywistym
-3.792357	oczywiście
-4.093387	oczywiście!
-4.093387	oczywiście.
-2.568342	od
-4.093387	odbicie
-4.093387	odbierana
-4.093387	odbywa
-3.917295	odbywać
-4.093387	odbędzie
-3.917295	odchodzić,
-4.093387	odcineczki
-3.917295	odczuwa
-3.917295	odczuwamy,
-3.917295	odczuwasz
-4.093387	oddali
-4.093387	oddanego
-4.093387	oddać
-4.093387	oddziaływania
-4.093387	ode
-4.093387	odejść.
-3.917295	odgrywać
-4.093387	odjąć
-4.093387	odkryto
-4.093387	odkrywa
-4.093387	odkrywczy
-4.093387	odkryć
-4.093387	odkryć,
-3.917295	odleciał
-4.093387	odległym
-4.093387	odmiany
-4.093387	odmienne
-4.093387	odnośnik
-3.917295	odnośnika
-4.093387	odnośnikiem
-3.917295	odpadł
-4.093387	odpoczynku
-3.917295	odporności.
-4.093387	odpowiadać
-3.792357	odpowiedzi
-4.093387	odpowiedzi:
-4.093387	odpowiedzialnego
-4.093387	odpowiedzią
-3.917295	odratowaniu
-3.917295	odrazy
-4.093387	odrealniony,
-4.093387	odrestaurowane
-4.093387	odrobiną
-3.917295	odrzuceniem
-3.917295	odrzuceniu
-3.917295	odróżnieniu
-3.917295	odręcznie.
-4.093387	odstępujesz
-4.093387	odsuwają
-3.917295	odsyłają
-3.917295	odsłonięcie
-3.917295	odtworzył
-4.093387	odtąd
-4.093387	odwagę.
-4.093387	odważnych
-4.093387	odważyłem.
-3.917295	odwet-
-3.917295	odwiecznych
-4.093387	odwiedził
-4.093387	odwodzie
-4.093387	odwołaniami
-3.917295	odwołując
-4.093387	odwracała
-4.093387	odwrotnie-
-3.917295	odwrót-
-4.093387	odznaczać
-4.093387	odłogiem.
-4.093387	ofert
-4.093387	ofiary
-4.093387	oficer
-3.917295	ofierze
-3.917295	ogarnia
-4.093387	ogarniętej
-3.917295	ogarnąć.
-4.093387	oglądali
-3.792357	oglądać
-4.093387	oglądałaś"
-4.093387	oglądałem
-3.917295	ogniska
-4.093387	ogranicza
-3.917295	ograł
-3.917295	ogrodem
-4.093387	ogromne.
-3.917295	ogromną
-3.917295	ogródek,
-4.093387	ogólny
-4.093387	ogórków
-3.917295	ogłosił
-4.093387	ogłoszeń.
-3.917295	ohydny
-3.917295	ojca
-4.093387	ojciec
-3.917295	ojcowe.
-4.093387	ojcowie
-3.917295	ojcowskiej
-3.917295	ojcu
-3.917295	ojczyzna
-3.695447	ojczyzny
-4.093387	ojczyzny.
-3.917295	ojczyźnie
-4.093387	oka
-4.093387	oka,
-3.917295	oka.
-4.093387	okazali
-3.792357	okazało
-4.093387	okazja,
-4.093387	okazje
-4.093387	okazji
-3.917295	okazji,
-3.394417	okazuje
-3.917295	okazując
-4.093387	okaże
-4.093387	okien.
-3.792357	okna
-3.917295	oknie
-3.917295	oknie.
-4.093387	oko
-3.917295	oko.
-4.093387	okolicach
-3.917295	okolicznościach
-3.792357	około
-3.917295	okresie
-4.093387	określa,
-4.093387	określić-
-4.093387	określona
-4.093387	określonego
-4.093387	okrucieństwa,
-3.917295	okrucieństwo
-3.917295	okrążała
-3.917295	okute,
-4.093387	okładki:
-4.093387	olbrzymi
-3.792357	olejki
-4.093387	olejków
-4.093387	olimpiady
-3.440174	on
-3.792357	ona
-3.491327	one
-3.917295	oni
-3.917295	oniryczna,
-3.917295	ono
-3.917295	opadły.
-4.093387	oparami
-4.093387	oparcie.
-4.093387	oparty
-4.093387	oparzenia
-3.917295	opat
-3.917295	opatom,
-4.093387	opatruje
-4.093387	opatrznością
-4.093387	opcja
-4.093387	operacja
-4.093387	operuje
-4.093387	opiekować
-4.093387	opiekuńczy
-4.093387	opiekę,
-3.917295	opierał
-4.093387	oporni?
-3.917295	opowiada
-4.093387	opowiada.
-3.917295	opowiadania
-3.792357	opowiadały,
-4.093387	opowieść
-3.917295	opromienione
-4.093387	oprzeć?
-4.093387	oprzyj
-4.093387	optyczna(
-3.917295	optymizmu.
-4.093387	opuszczała
-3.917295	opór,
-4.093387	opętani
-4.093387	opłaca
-3.917295	opłakania
-3.248289	oraz
-4.093387	organizacji
-4.093387	organizm
-4.093387	organizmu
-4.093387	organizmu.
-4.093387	organy,
-4.093387	oryginalny
-4.093387	oryginału
-4.093387	osadzone
-4.093387	osadzoną
-4.093387	osiemdziesiątych,
-3.917295	osiągnięcie
-3.917295	osiągnięte
-4.093387	osiągnąć
-4.093387	osiągnę
-3.917295	oskarżony
-4.093387	osoba
-3.917295	osobistego,
-3.917295	osobistej
-4.093387	osobnik
-4.093387	osoby
-3.917295	osoby,
-3.917295	osoby.
-4.093387	osobą?
-4.093387	ostateczna
-3.917295	ostatecznym
-3.917295	ostatni
-4.093387	ostatnia
-4.093387	ostatnich
-3.792357	ostatniego
-4.093387	ostatniej
-4.093387	ostatnim
-4.093387	ostatnią
-4.093387	ostro
-3.917295	ostępów.
-4.093387	oszczędności
-3.917295	osób
-4.093387	osób,
-3.917295	osła".
-4.093387	ot,
-4.093387	otaczane
-3.917295	otchłanie.
-3.917295	oto
-3.917295	oto,
-3.917295	otoczenia.
-3.917295	otrucia.
-3.917295	otrzymane.
-3.917295	otwarci
-4.093387	otwarta
-3.695447	otwartego
-4.093387	otwartym
-4.093387	otwartymi
-3.792357	otwiera
-3.917295	otworem
-3.917295	otwory.
-4.093387	otworzyło
-3.917295	owego
-4.093387	owej
-4.093387	owszem,
-4.093387	owym
-4.093387	ową
-4.093387	owładnięta
-3.792357	oznacza
-4.093387	oznacza,
-4.093387	oznaczenie
-3.917295	oznajmia,
-3.917295	ołowiu
-3.792357	ośmiu
-4.093387	pachnącej
-3.917295	pagóry
-4.093387	pakietu
-3.792357	palcami
-4.093387	palenia
-3.695447	paliłem
-4.093387	palą
-4.093387	pamięta
-3.917295	pamiętniki
-3.917295	pan
-3.917295	pan,
-4.093387	pana
-3.695447	pani
-4.093387	panie
-4.093387	panie,
-4.093387	pannie
-4.093387	panować
-4.093387	pantomimą
-4.093387	panują
-3.917295	papieski,
-4.093387	para,
-4.093387	paranoją
-4.093387	partycji
-4.093387	paru
-3.695447	pasji,
-4.093387	paskudna
-3.917295	pastelowej
-4.093387	pastować
-3.917295	pasuje
-4.093387	patronatem
-4.093387	patrz
-3.917295	patrzcie,
-3.792357	patrzeć
-3.695447	patrzy
-3.917295	pałaców
-4.093387	pańskim
-3.917295	państwa,
-3.917295	państwowego.
-3.917295	państwowej
-4.093387	peace)
-4.093387	pecha!
-3.917295	pejzaż
-4.093387	per
-4.093387	pereł
-3.917295	perkozy-
-4.093387	perspektywom
-4.093387	perspektywy!
-4.093387	perspektywę
-4.093387	perswazji
-3.917295	peruk
-4.093387	pewne
-4.093387	pewnego
-4.093387	pewnej
-3.792357	pewni,
-3.616266	pewnie
-3.616266	pewno
-3.917295	pewno,
-4.093387	pewności?
-3.616266	pewnością
-3.917295	pewność
-3.917295	pewnych
-3.917295	pełnego
-4.093387	pełnej
-4.093387	pełnej,
-4.093387	pełni
-4.093387	pełnia
-4.093387	pełnym
-4.093387	pełną
-4.093387	piany.
-3.917295	piaski
-3.917295	piasku
-3.917295	piasku,
-4.093387	picie
-4.093387	piec
-4.093387	pieczołowicie
-3.917295	piekle?
-4.093387	piekło!
-4.093387	pielęgnacji
-3.917295	pieniądze
-3.917295	pieniądze(
-3.917295	pieniędzy
-3.695447	piersi
-4.093387	piersi?
-4.093387	pierwsze,
-3.917295	pierwszej
-4.093387	pierwszej(
-3.616266	pierwszy
-3.917295	pierwszym
-3.917295	pierwszą
-3.917295	pierś
-3.917295	pieszczotą
-4.093387	pieściłaś
-3.917295	pieśń
-4.093387	pigułkę
-4.093387	piguły.
-4.093387	piraci
-4.093387	pirackich
-4.093387	pirata
-3.917295	pisali
-4.093387	pisali,
-4.093387	pisania
-3.917295	pisania!!!)
-3.917295	pisania,
-3.917295	pisanie
-3.917295	pisarskim.
-3.917295	pisarską
-3.792357	pisarz,
-4.093387	pisarza
-3.917295	pisać
-3.917295	pisałem.
-3.917295	piszczel
-4.093387	piwie,
-3.917295	piwnicą!
-3.917295	piórami
-4.093387	piątym
-3.917295	piątą
-4.093387	pięciu
-3.695447	piękne
-4.093387	pięknego
-3.917295	pięknego,
-4.093387	piękniejszy.
-4.093387	pięknym
-3.917295	piękną
-4.093387	piętnastego
-3.917295	piętnaście
-4.093387	piętra
-4.093387	piętrowym,
-3.917295	piętrze
-4.093387	piłki
-3.917295	plan?
-4.093387	planami?
-4.093387	planet
-4.093387	planie
-4.093387	planu
-3.917295	planów.
-4.093387	plecach
-4.093387	plecy
-3.917295	pluta
-3.917295	plwocina
-3.917295	pląsająca
-2.695446	po
-4.093387	po...
-3.917295	pobratymca.
-3.917295	pochodach.
-4.093387	pochodzi
-3.917295	pochodzą
-4.093387	pochyla
-3.917295	pochówku,
-4.093387	pochłaniających
-3.917295	pochłonięta
-3.917295	pochłonięte
-4.093387	pociech
-4.093387	pociesza:
-4.093387	pociągnęła
-3.917295	poczucia
-4.093387	poczuć
-4.093387	poczuła
-3.917295	poczytnością
-3.917295	początek
-4.093387	początek.
-3.792357	początku
-4.093387	początku.
-3.032689	pod
-3.917295	podaje,
-3.917295	podającą
-3.917295	podarować
-3.917295	podatku
-3.917295	podatków,
-3.917295	podatny
-3.917295	podbija
-3.917295	podbity
-4.093387	podbródek
-4.093387	podciągaj.
-3.440174	podczas
-3.917295	podejrzana
-3.917295	podejrzanego).
-4.093387	podejrzewać,
-4.093387	podejrzeń,
-4.093387	podglądać,
-3.917295	podjąłeś
-4.093387	podjęły
-3.917295	podlegającego
-3.917295	podległych
-3.917295	podniety
-4.093387	podnosić
-4.093387	podnoszenie
-3.917295	podnosząca
-4.093387	podobałaś
-4.093387	podobnego.
-4.093387	podobnej
-4.093387	podobno
-3.695447	podobny
-3.917295	podobnych
-3.917295	podobnym
-4.093387	podobnymi
-4.093387	podpisywać
-3.917295	podróżować,
-4.093387	podróży
-3.917295	podręczniki
-4.093387	podstawowymi
-4.093387	podstawy
-4.093387	podstawówce
-3.917295	podsuniętym
-3.917295	podszczuje
-4.093387	podtrzymuje
-3.917295	podwajał
-3.917295	podziemnego
-3.917295	podziemnego.
-3.917295	podziękować
-4.093387	podłogi
-4.093387	podłoża.
-4.093387	podłóg!
-3.917295	poematu
-3.917295	poeta.
-3.917295	poetykę
-3.917295	poezja
-3.917295	poganami
-3.917295	pogarda-
-3.917295	pogardzie
-3.917295	pogoni
-3.917295	pogrzebania
-3.917295	pogłowia.
-4.093387	pojawia
-3.917295	pojawiać
-3.792357	pojawiła
-3.917295	pojednanego,
-3.917295	pojednany
-3.917295	pojąwszy
-3.917295	pojęcia
-4.093387	pojęcia.
-4.093387	pokazuje
-3.917295	pokazują
-4.093387	pokazującą
-4.093387	pokaż
-4.093387	pokaże
-3.917295	pokochał
-3.917295	pokoje(
-3.917295	pokoju
-3.917295	pokolenia
-3.917295	pokolenie
-3.917295	pokolenie,
-3.917295	pokonać
-4.093387	pokonać?
-3.917295	pokornym
-4.093387	pokryła
-4.093387	pokusy
-3.917295	pokutnik
-3.917295	pokuty,
-4.093387	pokój
-3.792357	pokój.
-3.917295	pokładzie.
-4.093387	pokłóciła
-3.917295	pola
-3.917295	polach
-4.093387	polami
-4.093387	polatam
-4.093387	polega
-3.917295	poległych
-4.093387	polemizuje
-4.093387	policzkach
-4.093387	policzków,
-3.917295	polifoniczne
-3.917295	politycy
-3.917295	politycznych
-3.917295	polityki.
-3.917295	politykiem,
-3.917295	polowaniu
-3.695447	polski
-3.917295	polskie
-3.917295	polskiego
-3.917295	polskiego,
-4.093387	polskiej-
-3.917295	polskim
-3.917295	polskimi
-4.093387	polszczyzną
-4.093387	pomaga
-3.917295	pomagać
-4.093387	pomalowała
-4.093387	pomidorowej
-4.093387	pomidorówki.
-4.093387	pomidorówką
-3.917295	pomieszczeń
-3.695447	pomiędzy
-3.917295	pomińmy
-3.917295	pomoc
-4.093387	pomocnicze.
-3.491327	pomocą
-4.093387	pomogło
-3.917295	pomorski
-3.917295	pomorską,
-3.792357	pomoże
-4.093387	pomysł
-4.093387	pomysł,
-4.093387	pomyślałam,
-4.093387	pomyślałem
-4.093387	pomyśle
-3.917295	pomyślnie
-3.917295	pomści
-3.549319	ponad
-3.917295	poniekąd
-3.917295	poniósłszy
-3.917295	ponosi
-4.093387	ponoć
-3.917295	ponurej
-3.917295	poobijanych
-4.093387	pooperacyjnej
-4.093387	popatrzeć.
-4.093387	popełnić
-4.093387	popełnił
-4.093387	popijają
-4.093387	popołudnia
-4.093387	poprawkę.
-4.093387	poprosił
-3.616266	poprzez
-4.093387	popularna?
-4.093387	popędem
-4.093387	pora
-4.093387	poradnik
-3.917295	porażki,
-3.917295	porażonej
-3.917295	porażony
-4.093387	porcie.
-4.093387	pornografię.
-4.093387	porozmawiaj
-3.917295	porozumienie
-4.093387	portu
-4.093387	poruszasz
-4.093387	poruszała
-4.093387	pory
-4.093387	porównuję
-3.917295	poręki
-3.917295	poskramiającego
-3.917295	poskrzypiałem
-4.093387	pospieszna
-4.093387	postaci
-3.917295	postaci.
-4.093387	postaciach(
-4.093387	postacie?
-3.917295	postacią
-4.093387	postanawia
-3.917295	postanowienia
-3.917295	postanowił
-3.917295	postanowiło
-4.093387	postawi
-4.093387	postawie
-3.917295	postawienia
-3.917295	postawienie
-4.093387	postawisz
-4.093387	postać
-4.093387	postradał
-4.093387	postrzegana
-4.093387	postrzegany
-3.917295	postrzegał,
-4.093387	postąpisz
-3.695447	postęp
-4.093387	postępowania-
-3.917295	postępu
-3.917295	postępu,
-4.093387	postępuje
-4.093387	poszukać
-3.917295	poszukiwacz
-4.093387	poszukiwania.
-3.792357	poszukiwaniu
-4.093387	poszukującym
-4.093387	poszła
-3.917295	poszło
-3.917295	posępne.
-3.917295	posłał
-3.440174	potem
-3.917295	potomnym
-3.917295	potrafi
-4.093387	potrafimy
-4.093387	potraw,
-4.093387	potrawa?
-3.917295	potrawach
-3.917295	potrzebne.
-4.093387	potrzebują
-3.917295	potrzeby
-4.093387	potwierdzi
-3.917295	potworem.
-4.093387	potykam.
-3.917295	potęgi
-3.917295	potęgą,
-3.917295	potęgę
-3.917295	potężnego
-3.917295	potężniejszymi
-3.917295	powiada
-3.917295	powiada:
-3.695447	powie
-3.917295	powie,
-3.917295	powiedzenia,
-4.093387	powiedziane,
-4.093387	powiedział
-4.093387	powiedział:"
-3.695447	powiedzieć
-3.695447	powiedzieć,
-3.917295	powiedzieć.
-4.093387	powiedzą
-3.917295	powiek.
-4.093387	powiekę
-4.093387	powielać
-4.093387	powiem
-4.093387	powiem.
-3.917295	powierzchowność.
-4.093387	powietrze
-3.917295	powieści
-3.917295	powieściowe
-3.917295	powieściowy
-3.917295	powikłany
-3.917295	powinnaś
-3.917295	powinni
-3.917295	powinniśmy
-3.792357	powinny
-4.093387	powodować
-3.792357	powodu
-3.917295	powodu.
-3.917295	powodzenia
-3.695447	powodów
-4.093387	powojennej
-3.917295	powoli
-3.917295	powozem,
-3.917295	powołani
-4.093387	powołany
-3.917295	powoływać
-3.917295	powrocie
-4.093387	powrotem.
-3.917295	powrócił,
-4.093387	powstaje
-4.093387	powstrzymać
-3.917295	powszechna
-4.093387	powtarzają
-4.093387	powtarzając
-3.917295	powątpiewać
-3.353024	poza
-3.917295	pozbawioną
-4.093387	pozbawić
-3.792357	poziom
-4.093387	poziomie
-3.917295	poznaje
-3.917295	poznaliśmy
-4.093387	poznanego
-3.695447	poznania
-4.093387	poznanie
-4.093387	poznaniem
-3.917295	poznawania?
-3.917295	poznawanie
-4.093387	poznawać
-3.917295	poznać
-4.093387	poznać?
-3.917295	poznał
-4.093387	poznała
-3.917295	pozorami.
-3.917295	pozorem
-4.093387	pozornie
-3.695447	pozostaje
-4.093387	pozostają
-3.917295	pozostającym
-3.917295	pozostanie
-3.917295	pozostawili
-4.093387	pozostawić
-3.616266	pozwala
-3.917295	pozwalającym
-4.093387	pozycja
-3.917295	pozycji
-4.093387	pozytywnie)
-3.616266	połowie
-3.917295	połowy
-4.093387	położenia
-4.093387	położeniami
-3.917295	położyć.
-3.917295	południowe
-3.917295	południowych
-3.917295	poły
-4.093387	połączenie
-4.093387	połączone
-3.917295	połączyłem
-4.093387	pośladkami.
-4.093387	pośpiesznie
-3.917295	pośrednictwem
-3.917295	pośród
-3.917295	poświęca
-4.093387	poświęciła
-3.917295	pożerał
-3.917295	pożyczonych
-4.093387	pożyczyłem,
-4.093387	praca
-4.093387	pracowity
-3.917295	pracownicy
-4.093387	pracowników?
-3.917295	pracujące
-3.792357	pracy
-4.093387	pracy,
-4.093387	pracy?
-3.792357	pracą
-4.093387	pracę
-4.093387	pracę,
-4.093387	pragmatycznym,
-3.695447	pragnie
-3.917295	pragniemy
-3.917295	praktyce?
-4.093387	praktyczne.
-3.917295	praktycznym,
-4.093387	praktykom.
-3.917295	prasie.
-3.616266	prawa
-3.917295	prawda
-4.093387	prawda.
-4.093387	prawda:
-4.093387	prawdy
-3.917295	prawdzie.
-3.917295	prawdziwego
-3.917295	prawdziwy
-3.917295	prawdziwych
-4.093387	prawdą,
-4.093387	prawdą.
-3.917295	prawdę,
-4.093387	prawe
-4.093387	prawego,
-3.792357	prawej
-3.917295	prawicy
-3.917295	prawideł,
-3.491327	prawie
-4.093387	prawni
-3.917295	prawnych
-3.695447	prawo
-4.093387	prawo,
-4.093387	prawo.
-4.093387	prawą
-3.917295	precz
-4.093387	predefiniowanych
-4.093387	prezentację
-4.093387	prezentują
-4.093387	prezydenta
-4.093387	prezydentem.
-4.093387	prezydentem?
-4.093387	priorytetów.
-4.093387	problemami
-4.093387	problemem
-4.093387	problemem.
-4.093387	problemy
-4.093387	problemów
-4.093387	problemów,
-4.093387	procedur
-4.093387	procent,
-4.093387	procent?
-3.695447	proces
-3.695447	procesu
-3.917295	produkcję
-4.093387	produktów
-4.093387	produkujących
-4.093387	profesjonalnie
-4.093387	profesjonalnych
-3.917295	progi
-4.093387	program
-4.093387	programem-
-4.093387	programie,
-4.093387	programu
-4.093387	programu.
-4.093387	programy".
-4.093387	programów
-4.093387	projekt,
-4.093387	prokuratorem
-4.093387	prokuratorem.
-3.917295	propozycje
-3.917295	propozycje,
-4.093387	prorodzinne?
-3.695447	prosił
-4.093387	proste
-4.093387	prosto
-4.093387	prosto,
-4.093387	prostoty
-3.616266	prostu
-4.093387	prostą
-3.917295	proszę.
-3.917295	protestu
-3.917295	protezy
-3.695447	prowadzi
-3.917295	prowincji
-4.093387	prozac
-4.093387	prozaiczne.
-3.917295	prozaiczny
-3.917295	prośby
-3.917295	pryncypialność
-3.917295	prywatne
-4.093387	prywatny
-4.093387	prywatnych
-4.093387	prywatnym
-3.917295	przebaczającym?
-3.917295	przebaczałeś
-3.917295	przebaczenia
-3.917295	przebaczenia,
-3.917295	przebaczenia?
-3.695447	przebiega
-3.917295	przebiegać.
-4.093387	przeboje
-4.093387	przebywa
-3.917295	przebywają
-3.917295	przebłagać
-4.093387	przechwalają
-3.440174	przecież
-3.616266	przeciw
-3.440174	przeciwko
-3.917295	przeciwnika.
-3.917295	przeciwnikami,
-4.093387	przeciętnej
-3.917295	przeciętny
-2.979443	przed
-3.695447	przede
-4.093387	przedmiot
-4.093387	przedmiotem
-4.093387	przedmiotów-
-3.917295	przedostatni
-3.917295	przedstawia
-4.093387	przedstawienie
-4.093387	przedstawienie;
-4.093387	przedziwną
-3.917295	przejścia
-4.093387	przejściowe
-3.917295	przekazach
-3.917295	przekazywania
-3.917295	przekazywał
-4.093387	przeklęta
-3.917295	przeklętą.
-4.093387	przekonają
-4.093387	przekonana,
-4.093387	przekonaniu,
-4.093387	przekonałaś
-4.093387	przekonywał
-4.093387	przekracza
-4.093387	przekracza,
-3.917295	przekraczają
-3.917295	przekroczenie
-3.917295	przekroczone
-3.917295	przekroczy
-3.917295	przekroczyć
-4.093387	przekroczył
-3.917295	przekrwioną
-3.917295	przemianę
-4.093387	przemieniające
-3.917295	przemienił
-3.917295	przemieniła
-4.093387	przemieszcza
-4.093387	przemkną
-4.093387	przemocy.
-3.917295	przemyka
-4.093387	przemyt
-4.093387	przemyślnie
-4.093387	przemyślną
-4.093387	przenikają
-4.093387	przenosili
-3.917295	przeobraża
-3.917295	przeoczy
-3.917295	przepadłego
-4.093387	przepis
-3.917295	przepisywali
-3.917295	przepisywano
-3.917295	przepowiadać
-3.917295	przeprawach
-4.093387	przeprowadzać
-4.093387	przerwa?
-4.093387	przerwę,
-4.093387	przerywamy
-3.917295	przerąbała
-3.917295	przeskakiwać.
-3.917295	przesmyki.
-4.093387	przestaje
-3.917295	przestajemy
-3.917295	przestrogi,
-3.792357	przestrzeni
-3.792357	przestrzeni,
-4.093387	przestrzeni.
-4.093387	przestrzeń
-3.917295	przesunął
-4.093387	przesuwając
-4.093387	przesuwamy
-4.093387	przeszkadza.
-4.093387	przeszkadzał
-3.917295	przeszukiwała
-3.917295	przeszywał.
-3.917295	przeszywała
-4.093387	przeszłości.
-3.917295	przeszłość
-3.917295	przesądzony,
-3.917295	przesławny
-4.093387	przetargi
-4.093387	przetoczyć
-4.093387	przetrwa
-3.917295	przetrwać
-4.093387	przewodnik,
-3.917295	przewodnikiem
-2.996477	przez
-3.917295	przezorny
-3.917295	przezwyciężyć.
-4.093387	prześpię
-4.093387	przeświadczenie,
-3.917295	przeżywając
-4.093387	przeżywać
-3.917295	przeżywałeś.
-4.093387	przeżyła
-3.917295	przodu
-3.280473	przy
-4.093387	przybiorą
-4.093387	przybliżyć
-3.917295	przychodniom,
-3.917295	przychodniów
-3.917295	przychodzi
-3.917295	przychodzimy,
-3.917295	przychodzą
-4.093387	przychodzę
-4.093387	przychwycić,
-3.917295	przycisnął,
-4.093387	przyciągniesz
-3.917295	przyczynach
-3.917295	przyczynę
-4.093387	przydatne
-4.093387	przygodę.
-4.093387	przygotowany
-3.917295	przygotował
-4.093387	przygotowuje
-3.917295	przyjaciel
-4.093387	przyjaciela,
-3.917295	przyjacielem
-3.917295	przyjaciołom
-4.093387	przyjaciół
-4.093387	przyjaciół,
-4.093387	przyjaciół.
-4.093387	przyjaciółki.
-4.093387	przyjaciółką,
-4.093387	przyjaciółmi.
-3.917295	przyjaciółmi?
-3.917295	przyjaźniach
-3.917295	przyjaźń
-3.917295	przyjemności-
-4.093387	przyjemnością
-3.917295	przyjmowali
-3.792357	przyjmują
-4.093387	przyjmuję
-3.917295	przyjął.
-4.093387	przyjętej
-4.093387	przyjściem
-3.917295	przykazania
-3.917295	przykrości?
-3.616266	przykład
-4.093387	przykład:"
-4.093387	przykładam
-3.917295	przykłady
-4.093387	przykładzie
-3.917295	przymocowane
-3.917295	przymusem
-3.792357	przynajmniej
-3.917295	przynieść
-3.917295	przynosi
-4.093387	przynoszą
-4.093387	przypadek
-4.093387	przypadkach.
-3.917295	przypadkowe
-4.093387	przypadkowych
-4.093387	przypadku
-4.093387	przypisana
-4.093387	przypisując
-3.917295	przypomina
-3.917295	przypominamy
-4.093387	przypomnienie.
-3.917295	przypomnieć,
-4.093387	przypuszczać,
-4.093387	przyrost
-4.093387	przyrostowe.
-4.093387	przyrostowej-
-4.093387	przyrządzić:
-3.917295	przysiadł
-3.917295	przyspieszać,
-4.093387	przystaje
-4.093387	przystojna
-4.093387	przystąpimy
-3.917295	przysypanie
-4.093387	przysyłali
-4.093387	przyszłego
-4.093387	przyszłego,
-4.093387	przyszłości,
-3.917295	przyszłość.
-4.093387	przyszły
-3.792357	przytoczyć
-4.093387	przytrafiło
-3.917295	przywróceniu
-4.093387	przyznam,
-4.093387	przyznać,
-4.093387	przyzwoitości-
-3.917295	przyźby
-4.093387	próbka
-4.093387	próbowałaś?
-3.917295	próbowałem
-3.695447	próbowałeś
-4.093387	próg.
-3.917295	prądem
-4.093387	psa.
-4.093387	psem.
-4.093387	pseudonimem,
-3.917295	pszczoły
-4.093387	publiczni
-3.917295	publicznym
-4.093387	puchar
-3.792357	punkt
-4.093387	punktem
-4.093387	punktu
-3.917295	punktualności
-4.093387	punkty
-3.917295	pustce.
-3.917295	puste
-3.792357	pustki.
-3.917295	pustkowia.
-3.917295	pustą
-4.093387	puzonie,
-4.093387	pułapki
-4.093387	puścili
-4.093387	puścił?
-4.093387	pyszne
-4.093387	pytali
-3.917295	pytam,
-3.917295	pytania,
-3.917295	pytanie
-3.792357	pytanie,
-3.792357	pytanie.
-4.093387	pytać.
-4.093387	pyłku;
-3.917295	pójdziemy.
-4.093387	pójdę
-4.093387	pół.
-3.917295	północy
-3.917295	później
-4.093387	później,
-3.917295	pędy
-3.917295	pędzeni.
-4.093387	pępkiem,
-3.917295	płacisz
-3.917295	płacz
-3.917295	płaczu,
-3.917295	płaczu.
-3.917295	płakał-
-4.093387	płakałam,
-3.792357	płaszcz
-4.093387	płciowym.
-4.093387	płeć
-4.093387	płonących
-4.093387	płycie
-4.093387	płytkiej
-3.917295	r.
-3.917295	racji
-3.917295	racjonalnie.
-3.917295	rację
-3.695447	raczej
-3.917295	rad,
-4.093387	radiu,
-3.917295	radosna.
-3.917295	radosną
-3.695447	radości
-3.917295	radością
-3.917295	radośnie
-3.917295	radość
-3.917295	raduje
-4.093387	radzi(
-3.917295	radzić?
-4.093387	rajdach
-3.917295	raju,
-3.917295	ramienia.
-3.917295	ramieniu,
-4.093387	ramion,
-4.093387	ramiona.
-4.093387	ramionami.
-4.093387	rany,
-3.917295	raną
-3.917295	raptem
-3.394417	raz
-3.440174	razem
-3.792357	razie
-3.917295	razu
-3.917295	razy
-4.093387	razy.
-3.917295	reagowałeś
-3.917295	reagujesz
-3.917295	reakcji
-4.093387	realna.
-4.093387	realny
-4.093387	realnym
-4.093387	refleksji
-4.093387	regionalnych,
-3.917295	reguł
-4.093387	relacją.
-3.917295	reliefu
-3.917295	religii:
-3.917295	religijnej
-3.917295	religijny
-3.917295	religijną
-4.093387	remake"
-3.917295	repertuaru
-3.917295	reprezentowała
-4.093387	rest
-3.917295	resztę
-4.093387	rewolucji
-3.917295	rewolucję.
-4.093387	rezydentem
-3.917295	rezygnacji.
-4.093387	reżyserem.
-4.093387	reżyserii
-3.917295	robi
-4.093387	robi.
-4.093387	robimy,
-4.093387	robisz
-4.093387	robisz,
-3.917295	robić
-4.093387	robiłam.
-3.917295	rodu
-3.695447	rodzaju
-3.917295	rodzić
-4.093387	rodzą
-3.917295	rogu
-3.917295	rojowiska
-3.792357	rok
-4.093387	rokiem
-4.093387	roku
-3.792357	roku.
-4.093387	rokujące
-4.093387	roli
-4.093387	roli?
-3.917295	rolników
-3.695447	rolę
-4.093387	rolę,
-4.093387	romansować.
-3.917295	romansu
-4.093387	romansów
-4.093387	romantyczne
-4.093387	room
-3.917295	rota
-4.093387	rozbiegany
-3.917295	rozbiję
-3.917295	rozbrzmiewało
-4.093387	rozbudowanym
-4.093387	rozbudował
-4.093387	rozbudzi
-3.917295	rozczarowaniem,
-3.917295	rozdeptać
-4.093387	rozdzielczości
-3.917295	rozdzierającego
-3.917295	rozgrywa
-3.917295	rozkrzyżowanymi
-3.917295	rozkwitająca
-3.917295	rozległej
-3.917295	rozległość
-3.792357	rozmaite
-3.917295	rozmawiałeś
-4.093387	rozmiarów
-4.093387	rozmowy
-3.792357	rozmowy,
-3.917295	roznosząc,
-3.917295	rozpacz
-3.917295	rozpacz,
-3.695447	rozpaczy
-3.917295	rozpaczy,
-3.917295	rozpaczy.
-3.917295	rozpalania
-3.917295	rozpoczyna
-3.917295	rozpoczął.
-3.917295	rozpocząłeś
-4.093387	rozpoczęcie
-4.093387	rozpoznaje
-3.917295	rozpoznawczym.
-4.093387	rozpoznać
-4.093387	rozprawy?
-4.093387	rozproszonych
-4.093387	rozprowadziła
-4.093387	rozpusty.
-4.093387	rozpływa
-4.093387	rozrywek
-3.917295	rozrywkach
-4.093387	rozróżnić
-3.917295	rozstania
-4.093387	rozstania,
-4.093387	rozstawionymi
-3.917295	rozstrzygnąć,
-4.093387	rozszerzonych
-3.917295	rozsądku.
-4.093387	roztacza
-4.093387	rozumem
-4.093387	rozumiem
-3.917295	rozumu
-4.093387	rozwagę.
-3.917295	rozważamy
-4.093387	rozważnie.
-3.917295	rozwija
-4.093387	rozwija,
-3.917295	rozwiązania
-4.093387	rozwiązanie
-3.792357	rozwiązanie.
-3.917295	rozwiązaniem
-3.917295	rozwiązać
-4.093387	rozwiązywać.
-3.440174	rozwoju
-4.093387	rozłożony
-3.917295	rozłączył
-3.917295	rozłąki.
-3.917295	roślin
-3.917295	ruch
-4.093387	ruch,
-4.093387	ruszył
-3.792357	rybackie
-4.093387	rybacy
-3.917295	rybaków.
-3.917295	rybitwy
-4.093387	rybka
-4.093387	rybka.
-4.093387	rybka:-
-3.917295	rycerzom-
-4.093387	ryju.
-4.093387	rys.
-3.917295	rysowałem
-3.917295	rytm.
-3.917295	rytuałem.
-4.093387	rzadkie!-
-3.917295	rzadkości.
-3.917295	rzadziej.
-3.695447	rzecz
-3.917295	rzecz,
-3.353024	rzeczy
-4.093387	rzeczy,
-3.917295	rzeczy.
-4.093387	rzeczywistości,
-4.093387	rzeczywistości-
-3.917295	rzeczywistość
-3.792357	rzeczywistość.
-3.917295	rzeczywisty
-4.093387	rzeczywiście
-3.917295	rzekomej
-3.917295	rzeką
-3.917295	rzekę,
-3.695447	rzesze
-4.093387	rzuceniu
-3.792357	rzucić
-4.093387	rzuciła
-3.917295	rzucone
-3.917295	rzymskiej
-3.917295	rzędu
-4.093387	ról?
-4.093387	równi
-3.695447	równie
-3.315235	również
-3.917295	równię
-4.093387	równolegle
-4.093387	równoległego
-3.917295	róża.
-3.616266	różne
-4.093387	różnią
-4.093387	różnorakie
-3.695447	różnych
-4.093387	różu
-3.917295	ręce.
-4.093387	ręce...
-3.695447	ręka
-4.093387	rękach.
-3.917295	rękami.
-3.917295	ręki
-3.917295	ręki,
-4.093387	ręku.
-3.917295	ręką
-3.917295	rękę
-3.917295	sadzenia
-3.695447	sakramencie
-3.917295	sakramentalnymi.
-3.280473	sam
-3.792357	sama
-3.917295	sama,
-4.093387	sama.
-3.792357	samego
-3.792357	samej
-3.917295	sami
-3.917295	sami?
-3.695447	samo
-3.917295	samo.
-4.093387	samobójstwo
-4.093387	samochodowe).
-4.093387	samochodów
-4.093387	samotne
-4.093387	samotności
-3.917295	samozachowawczy,
-4.093387	samych
-3.491327	samym
-3.917295	sarabandę
-3.917295	saskiego
-4.093387	scena
-3.917295	scenariusze,
-3.917295	scenie
-4.093387	scenografię
-3.917295	scenografom
-4.093387	sceny
-4.093387	scenę
-4.093387	scenę,
-3.917295	sceptyk
-4.093387	schizofrenii
-4.093387	schodzisz
-4.093387	segmentach
-4.093387	sekrety
-4.093387	sekretów
-4.093387	seks-maniaka,
-4.093387	seks?
-3.917295	seksu
-4.093387	seksualnie
-4.093387	sekwencję
-3.917295	sensie
-3.917295	sentencje
-3.917295	serca
-3.917295	serca.
-3.695447	serce
-3.917295	sercu
-3.917295	serdeczne
-4.093387	serialach
-4.093387	serii
-4.093387	serio-
-4.093387	serię
-4.093387	seryjni
-4.093387	sesjach
-4.093387	she
-4.093387	shop?
-3.917295	siania
-4.093387	siatkowym
-3.248289	siebie
-4.093387	siebie,
-4.093387	siebie.
-3.917295	siebie?
-4.093387	siecią
-4.093387	siedział
-4.093387	sierpnia
-3.917295	silniejszy
-3.917295	silnym
-3.917295	sioła
-1.878543	się
-3.093387	się,
-3.792357	się.
-4.093387	sięgają
-4.093387	sił
-3.917295	skaczących
-4.093387	skalę.
-4.093387	skandalu.
-4.093387	skaner
-3.917295	skarby
-3.917295	skasowanie
-4.093387	skazani-
-4.093387	skazany
-3.917295	skierował
-4.093387	sklepie
-3.917295	sklepieniem
-3.917295	sklepionym.
-4.093387	skomplikowanej
-4.093387	skoncentrować
-4.093387	skoncentrować,
-3.549319	skoro
-3.917295	skorupy
-4.093387	skorzystania
-4.093387	skorzystać
-4.093387	skończyłam
-3.917295	skraju
-4.093387	skromnie,
-3.917295	skruchę.
-3.917295	skruszony
-3.917295	skrwawiony.
-4.093387	skrzą
-3.917295	skupienia
-4.093387	skupionej,
-4.093387	skusić
-3.917295	skuteczniejsza
-3.917295	skuteczność
-4.093387	skuteczność.
-4.093387	skutki
-3.917295	skórach
-4.093387	skóry.
-4.093387	skórze
-4.093387	skórę
-4.093387	skąd
-3.917295	składamy
-4.093387	składankę
-4.093387	składnik
-3.695447	skłaniać
-4.093387	skłonni
-3.917295	skłonności
-3.917295	smaczna
-4.093387	smażonych
-3.917295	smutek
-2.963053	sobie
-3.491327	sobie,
-4.093387	sobie?
-3.917295	sobą
-4.093387	sobą-
-3.695447	sobą.
-4.093387	sojuszników
-4.093387	soli
-4.093387	solidnie.
-4.093387	spacerów
-3.917295	spadkobiercy
-3.917295	spalić
-4.093387	spania
-3.917295	spać.
-4.093387	spaść
-4.093387	specjalistów.
-4.093387	specjalnego
-4.093387	spektakl
-3.917295	spełnione
-3.917295	spełnione.
-4.093387	spełnić
-4.093387	spełniło.
-3.917295	spiskowiec
-3.917295	spoczywa
-3.917295	spoczywające
-4.093387	spodziewajmy.
-4.093387	spodziewasz.
-4.093387	spodziewać,
-4.093387	spoglądam
-4.093387	spojrzeniem
-4.093387	spojrzeniem,
-4.093387	spojrzeć
-4.093387	spokojnie,
-3.917295	spokój,
-3.917295	spokój.
-4.093387	sponsorowi,
-3.917295	spontaniczny,
-4.093387	spopielałych
-4.093387	sport,
-4.093387	sportu
-4.093387	sportu?
-4.093387	sposoby.
-3.917295	spostrzegłem,
-3.917295	spostrzeżenia,
-3.315235	sposób
-4.093387	sposób.
-3.917295	spotkanie
-4.093387	spotkanie.
-4.093387	spotkałam
-3.616266	spotyka
-3.917295	spotykanej
-3.917295	spowodowane?
-3.917295	spracowaną
-3.917295	spraw.
-3.695447	sprawia,
-3.792357	sprawiać
-3.695447	sprawiedliwości
-3.917295	sprawiedliwość
-4.093387	sprawić,
-4.093387	sprawiło,
-4.093387	sprawne
-4.093387	sprawnie
-3.917295	sprawom
-3.917295	sprawy
-4.093387	sprostać
-3.917295	sprowadzał
-4.093387	sprowadzona
-3.917295	sprytnym
-4.093387	sprzecznych
-3.917295	sprzed
-4.093387	sprzedającym
-4.093387	sprzedaż
-4.093387	sprzyjający
-3.917295	sprząta
-4.093387	spróbować
-4.093387	spróbuję
-4.093387	spędziła
-4.093387	spędzone
-4.093387	spędzonych
-3.917295	spłacheć
-4.093387	spłodzili,
-3.917295	spłowiałym
-4.093387	stadionie
-3.695447	staje
-4.093387	stajennymi
-3.917295	stają
-4.093387	stale
-3.917295	stalowe
-3.616266	stan
-4.093387	standardowo
-4.093387	stanem
-4.093387	stanie
-3.917295	stanowi
-3.917295	stanowiska-
-3.917295	stanowią
-3.917295	stanowił
-4.093387	stanu
-3.695447	stara
-4.093387	staraj
-3.917295	starają
-4.093387	staram
-3.917295	starcia
-3.917295	stare
-3.917295	starego
-4.093387	starodawne
-4.093387	starokawalerskich
-4.093387	starokawalerskie
-3.917295	starości
-3.695447	starości,
-3.917295	starożytne;
-3.917295	starożytnego
-3.792357	status
-3.917295	stawiły
-4.093387	stać
-3.917295	stać.
-3.491327	stał
-3.917295	stała
-4.093387	stałaś
-3.917295	stało
-3.917295	stało,
-4.093387	steków
-4.093387	sternika.
-3.792357	sto
-3.695447	stoi
-4.093387	stojącej
-3.917295	stole?
-3.917295	stopa
-4.093387	stopami
-4.093387	stopień
-3.917295	stopy
-4.093387	store.britannica.com(
-3.917295	stosem
-4.093387	stosowane
-3.792357	stosunki
-3.917295	stołku.
-3.917295	stożkach,
-3.917295	strachu,
-3.917295	straciła
-3.917295	straconego
-4.093387	straszliwe
-3.695447	straszliwie
-3.917295	straszliwszy
-3.917295	straszliwą
-3.917295	straszne
-4.093387	strasznie
-4.093387	strategię
-3.917295	strażniczko
-3.917295	strażników
-3.917295	strażą
-4.093387	stref
-4.093387	striptiz,
-3.917295	strojach
-3.917295	stron
-3.917295	stronach
-3.917295	stronach.
-3.917295	stronicami
-3.792357	stronie
-3.695447	strony
-3.695447	strony,
-3.917295	struchlała.
-4.093387	struktura.
-4.093387	strun.
-3.917295	strzaskali...
-3.917295	strzały
-3.917295	strzemiona
-3.917295	stróża
-3.917295	strącał
-3.917295	studenci
-3.917295	studentki:
-4.093387	studia
-4.093387	studiujesz
-4.093387	studium
-3.917295	stuleci
-3.695447	stulecia
-4.093387	stuprocentowa
-4.093387	stuprocentowych
-4.093387	stwierdzam:
-3.917295	stwierdził,
-4.093387	stworzenia
-4.093387	stworzenia"
-3.917295	stworzenia.
-3.695447	stworzenie
-3.917295	stworzeniu
-3.917295	stworzoną
-3.792357	styl
-3.917295	styl,
-4.093387	stylów,
-3.917295	stąd,
-3.917295	stąpać
-4.093387	substancji
-4.093387	subwoofer
-4.093387	suchej
-4.093387	sufitu
-3.917295	suity
-4.093387	sukces
-3.917295	sukces.
-3.917295	sukcesem
-4.093387	sukcesu
-3.917295	suknem,
-3.917295	sumienia
-4.093387	supermocny
-3.917295	surowa
-4.093387	sushi;
-3.917295	suwak
-3.491327	swe
-3.280473	swego
-3.616266	swej
-3.917295	swobodna
-3.917295	swobodnie
-3.917295	swobody-
-3.440174	swoich
-3.218325	swoim
-4.093387	swoimi
-3.394417	swoje
-4.093387	swojego
-3.315235	swojej
-3.491327	swoją
-3.917295	swych
-3.792357	swym
-3.695447	swój
-3.353024	swą
-4.093387	sygnał
-4.093387	sygnałów
-3.917295	symbole
-3.917295	sympatia
-3.549319	syn
-3.695447	syna
-3.917295	syntezy
-3.917295	synów
-4.093387	sypiasz,
-3.917295	sypkie
-4.093387	sypkim
-4.093387	systemem,
-4.093387	systemowe:
-4.093387	systemu.
-4.093387	sytuacja
-4.093387	sytuacja,
-3.549319	sytuacjach
-3.917295	sytuacje
-3.917295	sytuacji-
-4.093387	sytuacji.
-3.917295	sytuacjom
-4.093387	sytuacją.
-4.093387	szacuje
-3.917295	szalała.
-3.917295	szalem
-4.093387	szanowani
-3.917295	szanowany
-4.093387	szanowaną
-4.093387	szans.
-4.093387	szanse
-4.093387	szansę,
-3.917295	szanują
-3.917295	szary
-3.917295	szaty
-4.093387	szczególne
-4.093387	szczególnie
-4.093387	szczególnych.
-4.093387	szczegół,
-4.093387	szczera
-3.917295	szczerość.
-4.093387	szczery.
-3.917295	szczątek
-3.917295	szczędzą
-3.792357	szczęścia,
-4.093387	szczęście
-4.093387	szczęście,
-4.093387	szczęściu!
-4.093387	szczęśliwa,
-4.093387	szczęśliwej
-3.917295	szczęśliwym,
-3.695447	szedł
-4.093387	szefową
-3.917295	szelestną
-3.917295	szeleśći
-4.093387	szept
-4.093387	szerokość
-4.093387	szerszą
-4.093387	szesnastolatek,
-4.093387	szkolnej
-4.093387	szkołą,
-4.093387	szkołę
-3.917295	szlachetności
-3.917295	szlachetnych
-3.917295	szlachtę
-3.917295	szli
-4.093387	szlify
-3.917295	szmat
-4.093387	sznureczkami
-3.917295	szpad
-3.917295	szpecące
-4.093387	szpiku
-3.917295	szpulowych
-3.917295	sztuka
-3.917295	sztuką
-4.093387	szuka
-4.093387	szwedzcy
-4.093387	szybkich
-3.917295	szybko
-4.093387	szybkość
-4.093387	szybowców.
-3.917295	szyi
-3.917295	szyków
-4.093387	szóstą
-3.917295	szła
-2.838114	są
-3.917295	sądem
-4.093387	sądzenia
-3.917295	sądzić
-4.093387	sądzić.
-4.093387	sądzą,
-4.093387	słodkiego
-3.917295	słodkimi
-3.917295	słowa
-4.093387	słowa.
-3.917295	słowiański
-3.695447	słowiańskie
-3.917295	słowiańskiego
-3.917295	słowiańską
-3.792357	słowo.
-3.917295	słowy
-3.917295	słuch
-4.093387	słuchacze
-3.917295	słuchamy
-3.917295	słuchać
-3.917295	słuchał.
-4.093387	służbowych
-3.917295	służbę,
-4.093387	słychać
-4.093387	słynne
-3.917295	słyszymy
-3.695447	słów
-3.549319	ta
-3.917295	tabelki,
-4.093387	tabliczkę
-4.093387	tajemnic
-3.917295	tajemnica
-3.917295	tajemnica,
-3.792357	tajemnicy
-3.917295	tajemniczy
-3.917295	tajemnie
-3.792357	tajnych
-2.875903	tak
-3.695447	tak,
-3.917295	tak-"
-4.093387	tak?
-4.093387	taka
-4.093387	taka,
-3.917295	taki
-4.093387	taki:
-3.917295	takich
-3.280473	takie
-3.695447	takiego
-3.792357	takiej
-3.917295	takim
-4.093387	taktu
-3.491327	taką
-4.093387	taką?".
-3.115663	także
-3.792357	talent
-3.917295	talentem
-4.093387	talentu
-4.093387	talenty?
-4.093387	talerzem
-3.491327	tam
-4.093387	tam(
-4.093387	tam,
-3.917295	tamten
-3.917295	tamten,
-3.917295	tamtych
-4.093387	tamtym.
-3.917295	tancerką.
-3.917295	tarcic
-4.093387	targać
-4.093387	tańcujące
-4.093387	taśmie
-4.093387	tchem
-4.093387	tchnie
-3.917295	tchnienie
-3.549319	te
-4.093387	teatru.
-4.093387	teatrze
-4.093387	technikami
-3.917295	techniki
-4.093387	technologia
-3.190297	tego
-3.792357	tego,
-4.093387	tego?
-3.163968	tej
-4.093387	tekst
-3.917295	teksty
-4.093387	telefon
-4.093387	telewizorem.
-4.093387	telewizyjnych.
-3.792357	temat
-3.917295	temu,
-3.014205	ten
-4.093387	tenisiści.
-3.917295	teoria
-4.093387	teoria.
-4.093387	teorią
-3.917295	teorię
-3.917295	teraz
-3.917295	teraz?
-4.093387	teraźniejszym,
-4.093387	tercjami?
-4.093387	terminów,
-4.093387	terrorysty
-3.917295	testament.
-4.093387	testującej
-4.093387	testujący
-4.093387	testów
-3.616266	też
-3.917295	też,
-4.093387	that
-4.093387	the
-3.917295	this
-3.917295	tle
-4.093387	tli
-2.353024	to
-3.616266	to,
-4.093387	to-
-4.093387	to.
-3.917295	tobie
-3.917295	tobą
-4.093387	tobą,
-4.093387	tobą.
-3.917295	toczonych
-4.093387	toczyło
-3.917295	tonacji
-3.917295	topniały
-4.093387	torturować
-4.093387	towarzystwie-
-4.093387	towarzystwie.
-3.917295	towarzysz,
-4.093387	towarzysząca
-4.093387	tożsamości,
-4.093387	tożsamy.
-4.093387	traciłam
-4.093387	trader.pl
-3.917295	tradycji,
-4.093387	tradycyjnie
-4.093387	tradycyjnie-
-3.917295	trafiają
-3.917295	trafił
-3.917295	tragedii
-3.917295	tragedii.
-3.917295	tragedii:
-3.792357	trakcie
-4.093387	traktowane
-3.917295	traktuje
-4.093387	transformacją.
-3.792357	trochę
-3.917295	tronu
-4.093387	troszkę,
-4.093387	trud
-3.917295	trudne
-3.616266	trudno
-4.093387	trudno,
-3.695447	trudności
-4.093387	trudnością
-3.917295	trudny
-4.093387	true
-4.093387	trupiego
-3.917295	trwania.
-4.093387	tryb
-3.394417	trzeba
-3.917295	trzeba,
-4.093387	trzecia
-3.695447	trzecie
-3.917295	trzecie,
-4.093387	trzema
-3.917295	trzewikami.
-4.093387	trzeźwo
-3.917295	trzpieniach
-3.917295	trzy
-4.093387	trzy,
-3.917295	trzyma
-4.093387	trzymać
-3.917295	trzynastego
-4.093387	trzynastozgłoskowcem
-4.093387	trąbce.
-4.093387	trąbka-
-3.190297	tu
-4.093387	tuszem
-3.695447	tuż
-4.093387	twarzy
-4.093387	twej
-4.093387	twierdzimy,
-3.792357	twoich
-4.093387	twoim
-3.792357	twoimi
-4.093387	twoja
-4.093387	twoje
-4.093387	twojej
-4.093387	tworem,
-4.093387	tworzenia,
-4.093387	tworzeniem
-4.093387	tworzywa.
-4.093387	tworzyć
-3.917295	tworząc
-3.792357	twój
-4.093387	twórca
-3.917295	twórcy
-4.093387	twórcza
-3.549319	ty
-4.093387	ty.
-3.440174	tych
-3.792357	tych,
-4.093387	tydzień-
-4.093387	tygodniach).
-3.917295	tygodnie
-3.440174	tyle
-4.093387	tyle,
-2.903055	tylko
-3.315235	tylko,
-2.792357	tym
-3.394417	tym,
-3.917295	tymi
-3.917295	typowo
-3.917295	tyran
-3.917295	tyrana.
-4.093387	tys.
-4.093387	tysiąc
-3.917295	tysiące
-3.917295	tysięcy
-4.093387	tytuł
-4.093387	tytułem.
-4.093387	tytuły
-3.394417	tę
-4.093387	tłumacz
-4.093387	tłumaczenie.
-4.093387	tłumaczy
-4.093387	tłumaczyła
-4.093387	tłumaczyłam
-3.917295	tłuściejsze
-3.353024	u
-4.093387	ubierać
-4.093387	ubierała
